{"learner":{"attributes":{"scikit_learn":"{\"_estimator_type\": \"regressor\"}"},"feature_names":["Gasoline","Diesel","Crude","GasolineDiff1","GasolineDiff2","GasolineDiff3","GasolineDiff4","GasolineDiff5","GasolineDiff6","GasolineDiff7","GasolineDiff8","GasolineDiff9","GasolineDiff10","GasolineDiff11","GasolineDiff12","GasolineDiff13","GasolineDiff14","GasolineDiff15","GasolineDiff16","GasolineDiff17","DieselDiff1","DieselDiff2","DieselDiff3","DieselDiff4","DieselDiff5","DieselDiff6","DieselDiff7","DieselDiff8","DieselDiff9","DieselDiff10","DieselDiff11","DieselDiff12","DieselDiff13","DieselDiff14","DieselDiff15","DieselDiff16","DieselDiff17","CrudeDiff1","CrudeDiff2","CrudeDiff3","CrudeDiff4","CrudeDiff5","CrudeDiff6","CrudeDiff7","CrudeDiff8","CrudeDiff9","CrudeDiff10","CrudeDiff11","CrudeDiff12","CrudeDiff13","CrudeDiff14","CrudeDiff15","CrudeDiff16","CrudeDiff17"],"feature_types":["float","float","float","float","float","float","float","float","float","float","float","float","float","float","float","float","float","float","float","float","float","float","float","float","float","float","float","float","float","float","float","float","float","float","float","float","float","float","float","float","float","float","float","float","float","float","float","float","float","float","float","float","float","float"],"gradient_booster":{"model":{"gbtree_model_param":{"num_parallel_tree":"1","num_trees":"517"},"iteration_indptr":[0,1,2,3,4,5,6,7,8,9,10,11,12,13,14,15,16,17,18,19,20,21,22,23,24,25,26,27,28,29,30,31,32,33,34,35,36,37,38,39,40,41,42,43,44,45,46,47,48,49,50,51,52,53,54,55,56,57,58,59,60,61,62,63,64,65,66,67,68,69,70,71,72,73,74,75,76,77,78,79,80,81,82,83,84,85,86,87,88,89,90,91,92,93,94,95,96,97,98,99,100,101,102,103,104,105,106,107,108,109,110,111,112,113,114,115,116,117,118,119,120,121,122,123,124,125,126,127,128,129,130,131,132,133,134,135,136,137,138,139,140,141,142,143,144,145,146,147,148,149,150,151,152,153,154,155,156,157,158,159,160,161,162,163,164,165,166,167,168,169,170,171,172,173,174,175,176,177,178,179,180,181,182,183,184,185,186,187,188,189,190,191,192,193,194,195,196,197,198,199,200,201,202,203,204,205,206,207,208,209,210,211,212,213,214,215,216,217,218,219,220,221,222,223,224,225,226,227,228,229,230,231,232,233,234,235,236,237,238,239,240,241,242,243,244,245,246,247,248,249,250,251,252,253,254,255,256,257,258,259,260,261,262,263,264,265,266,267,268,269,270,271,272,273,274,275,276,277,278,279,280,281,282,283,284,285,286,287,288,289,290,291,292,293,294,295,296,297,298,299,300,301,302,303,304,305,306,307,308,309,310,311,312,313,314,315,316,317,318,319,320,321,322,323,324,325,326,327,328,329,330,331,332,333,334,335,336,337,338,339,340,341,342,343,344,345,346,347,348,349,350,351,352,353,354,355,356,357,358,359,360,361,362,363,364,365,366,367,368,369,370,371,372,373,374,375,376,377,378,379,380,381,382,383,384,385,386,387,388,389,390,391,392,393,394,395,396,397,398,399,400,401,402,403,404,405,406,407,408,409,410,411,412,413,414,415,416,417,418,419,420,421,422,423,424,425,426,427,428,429,430,431,432,433,434,435,436,437,438,439,440,441,442,443,444,445,446,447,448,449,450,451,452,453,454,455,456,457,458,459,460,461,462,463,464,465,466,467,468,469,470,471,472,473,474,475,476,477,478,479,480,481,482,483,484,485,486,487,488,489,490,491,492,493,494,495,496,497,498,499,500,501,502,503,504,505,506,507,508,509,510,511,512,513,514,515,516,517],"tree_info":[0,0,0,0,0,0,0,0,0,0,0,0,0,0,0,0,0,0,0,0,0,0,0,0,0,0,0,0,0,0,0,0,0,0,0,0,0,0,0,0,0,0,0,0,0,0,0,0,0,0,0,0,0,0,0,0,0,0,0,0,0,0,0,0,0,0,0,0,0,0,0,0,0,0,0,0,0,0,0,0,0,0,0,0,0,0,0,0,0,0,0,0,0,0,0,0,0,0,0,0,0,0,0,0,0,0,0,0,0,0,0,0,0,0,0,0,0,0,0,0,0,0,0,0,0,0,0,0,0,0,0,0,0,0,0,0,0,0,0,0,0,0,0,0,0,0,0,0,0,0,0,0,0,0,0,0,0,0,0,0,0,0,0,0,0,0,0,0,0,0,0,0,0,0,0,0,0,0,0,0,0,0,0,0,0,0,0,0,0,0,0,0,0,0,0,0,0,0,0,0,0,0,0,0,0,0,0,0,0,0,0,0,0,0,0,0,0,0,0,0,0,0,0,0,0,0,0,0,0,0,0,0,0,0,0,0,0,0,0,0,0,0,0,0,0,0,0,0,0,0,0,0,0,0,0,0,0,0,0,0,0,0,0,0,0,0,0,0,0,0,0,0,0,0,0,0,0,0,0,0,0,0,0,0,0,0,0,0,0,0,0,0,0,0,0,0,0,0,0,0,0,0,0,0,0,0,0,0,0,0,0,0,0,0,0,0,0,0,0,0,0,0,0,0,0,0,0,0,0,0,0,0,0,0,0,0,0,0,0,0,0,0,0,0,0,0,0,0,0,0,0,0,0,0,0,0,0,0,0,0,0,0,0,0,0,0,0,0,0,0,0,0,0,0,0,0,0,0,0,0,0,0,0,0,0,0,0,0,0,0,0,0,0,0,0,0,0,0,0,0,0,0,0,0,0,0,0,0,0,0,0,0,0,0,0,0,0,0,0,0,0,0,0,0,0,0,0,0,0,0,0,0,0,0,0,0,0,0,0,0,0,0,0,0,0,0,0,0,0,0,0,0,0,0,0,0,0,0,0,0,0,0,0,0,0,0,0,0,0,0,0,0,0,0,0,0,0,0,0,0,0,0,0,0,0,0,0,0,0,0,0,0,0,0,0,0,0,0,0,0,0,0,0,0,0,0,0,0,0,0,0,0,0,0,0,0,0],"trees":[{"base_weights":[-0E0,-3.261444E-2,9.37784E-3,-2.2462632E-3,-7.017017E-4,-0E0,8.647084E-4],"categories":[],"categories_nodes":[],"categories_segments":[],"categories_sizes":[],"default_left":[0,0,0,0,0,0,0],"id":0,"left_children":[1,3,5,-1,-1,-1,-1],"loss_changes":[4.7423857E-1,4.6262443E-2,1.6132754E-1,0E0,0E0,0E0,0E0],"parents":[2147483647,0,0,1,1,2,2],"right_children":[2,4,6,-1,-1,-1,-1],"split_conditions":[-2.7E-2,-2.22E-1,2.9E-2,-2.2462632E-3,-7.017017E-4,-0E0,8.647084E-4],"split_indices":[3,5,21,0,0,0,0],"split_type":[0,0,0,0,0,0,0],"sum_hessian":[1.536E3,3.39E2,1.197E3,5.8E1,2.81E2,7.98E2,3.99E2],"tree_param":{"num_deleted":"0","num_feature":"54","num_nodes":"7","size_leaf_vector":"1"}},{"base_weights":[-0E0,-2.8575022E-2,1.1243722E-2,-2.062201E-3,-5.663947E-4,1.5242487E-4,1.2804138E-3],"categories":[],"categories_nodes":[],"categories_segments":[],"categories_sizes":[],"default_left":[0,0,0,0,0,0,0],"id":1,"left_children":[1,3,5,-1,-1,-1,-1],"loss_changes":[4.9847806E-1,8.7035E-2,1.5848444E-1,0E0,0E0,0E0,0E0],"parents":[2147483647,0,0,1,1,2,2],"right_children":[2,4,6,-1,-1,-1,-1],"split_conditions":[-1.3E-2,-5.8E-2,3.9E-2,-2.062201E-3,-5.663947E-4,1.5242487E-4,1.2804138E-3],"split_indices":[20,20,20,0,0,0,0],"split_type":[0,0,0,0,0,0,0],"sum_hessian":[1.536E3,4.31E2,1.105E3,8.5E1,3.46E2,9.18E2,1.87E2],"tree_param":{"num_deleted":"0","num_feature":"54","num_nodes":"7","size_leaf_vector":"1"}},{"base_weights":[-0E0,-2.620179E-2,1.1557371E-2,-1.9981524E-3,-5.2173645E-4,1.6487272E-4,1.23886E-3],"categories":[],"categories_nodes":[],"categories_segments":[],"categories_sizes":[],"default_left":[0,0,0,0,0,0,0],"id":2,"left_children":[1,3,5,-1,-1,-1,-1],"loss_changes":[4.6991757E-1,9.125629E-2,1.399112E-1,0E0,0E0,0E0,0E0],"parents":[2147483647,0,0,1,1,2,2],"right_children":[2,4,6,-1,-1,-1,-1],"split_conditions":[-1.1E-2,-5.8E-2,3.9E-2,-1.9981524E-3,-5.2173645E-4,1.6487272E-4,1.23886E-3],"split_indices":[20,20,20,0,0,0,0],"split_type":[0,0,0,0,0,0,0],"sum_hessian":[1.536E3,4.68E2,1.068E3,8.5E1,3.83E2,8.81E2,1.87E2],"tree_param":{"num_deleted":"0","num_feature":"54","num_nodes":"7","size_leaf_vector":"1"}},{"base_weights":[-0E0,-2.5283528E-2,8.302388E-3,-1.882852E-3,-4.7797372E-4,-0E0,7.387667E-4],"categories":[],"categories_nodes":[],"categories_segments":[],"categories_sizes":[],"default_left":[0,0,0,0,0,0,0],"id":3,"left_children":[1,3,5,-1,-1,-1,-1],"loss_changes":[3.260393E-1,5.850002E-2,1.2187198E-1,0E0,0E0,0E0,0E0],"parents":[2147483647,0,0,1,1,2,2],"right_children":[2,4,6,-1,-1,-1,-1],"split_conditions":[-3.8E-2,-1.16E-1,2.9E-2,-1.882852E-3,-4.7797372E-4,-0E0,7.387667E-4],"split_indices":[4,21,21,0,0,0,0],"split_type":[0,0,0,0,0,0,0],"sum_hessian":[1.536E3,3.77E2,1.159E3,7E1,3.07E2,7.45E2,4.14E2],"tree_param":{"num_deleted":"0","num_feature":"54","num_nodes":"7","size_leaf_vector":"1"}},{"base_weights":[-0E0,-2.972584E-2,8.497254E-3,-2.2907017E-3,-6.702172E-4,-0E0,7.304053E-4],"categories":[],"categories_nodes":[],"categories_segments":[],"categories_sizes":[],"default_left":[0,0,0,0,0,0,0],"id":4,"left_children":[1,3,5,-1,-1,-1,-1],"loss_changes":[3.9292738E-1,3.7484705E-2,1.3422358E-1,0E0,0E0,0E0,0E0],"parents":[2147483647,0,0,1,1,2,2],"right_children":[2,4,6,-1,-1,-1,-1],"split_conditions":[-2.7E-2,-1.02E-1,1.8E-2,-2.2907017E-3,-6.702172E-4,-0E0,7.304053E-4],"split_indices":[3,3,3,0,0,0,0],"split_type":[0,0,0,0,0,0,0],"sum_hessian":[1.536E3,3.39E2,1.197E3,4.1E1,2.98E2,7.33E2,4.64E2],"tree_param":{"num_deleted":"0","num_feature":"54","num_nodes":"7","size_leaf_vector":"1"}},{"base_weights":[-0E0,-2.5966544E-2,1.0136839E-2,-1.8816865E-3,-5.1985646E-4,1.334821E-4,1.156969E-3],"categories":[],"categories_nodes":[],"categories_segments":[],"categories_sizes":[],"default_left":[0,0,0,0,0,0,0],"id":5,"left_children":[1,3,5,-1,-1,-1,-1],"loss_changes":[4.0980205E-1,6.438038E-2,1.2897727E-1,0E0,0E0,0E0,0E0],"parents":[2147483647,0,0,1,1,2,2],"right_children":[2,4,6,-1,-1,-1,-1],"split_conditions":[-1.3E-2,-5.9E-2,3.9E-2,-1.8816865E-3,-5.1985646E-4,1.334821E-4,1.156969E-3],"split_indices":[20,20,20,0,0,0,0],"split_type":[0,0,0,0,0,0,0],"sum_hessian":[1.536E3,4.31E2,1.105E3,8.1E1,3.5E2,9.18E2,1.87E2],"tree_param":{"num_deleted":"0","num_feature":"54","num_nodes":"7","size_leaf_vector":"1"}},{"base_weights":[-0E0,-2.3814997E-2,1.0423958E-2,-1.7946819E-3,-4.718443E-4,1.6997059E-4,1.2554846E-3],"categories":[],"categories_nodes":[],"categories_segments":[],"categories_sizes":[],"default_left":[0,0,0,0,0,0,0],"id":6,"left_children":[1,3,5,-1,-1,-1,-1],"loss_changes":[3.8639045E-1,6.833163E-2,1.1386652E-1,0E0,0E0,0E0,0E0],"parents":[2147483647,0,0,1,1,2,2],"right_children":[2,4,6,-1,-1,-1,-1],"split_conditions":[-1.1E-2,-5.8E-2,4.9E-2,-1.7946819E-3,-4.718443E-4,1.6997059E-4,1.2554846E-3],"split_indices":[20,20,20,0,0,0,0],"split_type":[0,0,0,0,0,0,0],"sum_hessian":[1.536E3,4.68E2,1.068E3,8.5E1,3.83E2,9.26E2,1.42E2],"tree_param":{"num_deleted":"0","num_feature":"54","num_nodes":"7","size_leaf_vector":"1"}},{"base_weights":[-0E0,-2.2791157E-2,7.4130096E-3,-1.6183013E-3,-3.9754336E-4,-0E0,6.6233636E-4],"categories":[],"categories_nodes":[],"categories_segments":[],"categories_sizes":[],"default_left":[0,0,0,0,0,0,0],"id":7,"left_children":[1,3,5,-1,-1,-1,-1],"loss_changes":[2.6369488E-1,4.5925945E-2,9.231223E-2,0E0,0E0,0E0,0E0],"parents":[2147483647,0,0,1,1,2,2],"right_children":[2,4,6,-1,-1,-1,-1],"split_conditions":[-3.8E-2,-1.42E-1,2.36E0,-1.6183013E-3,-3.9754336E-4,-0E0,6.6233636E-4],"split_indices":[4,22,39,0,0,0,0],"split_type":[0,0,0,0,0,0,0],"sum_hessian":[1.536E3,3.77E2,1.159E3,8.1E1,2.96E2,7.61E2,3.98E2],"tree_param":{"num_deleted":"0","num_feature":"54","num_nodes":"7","size_leaf_vector":"1"}},{"base_weights":[-0E0,-2.4052793E-2,9.363172E-3,-1.7322515E-3,-4.7762596E-4,1.1637851E-4,1.0552565E-3],"categories":[],"categories_nodes":[],"categories_segments":[],"categories_sizes":[],"default_left":[0,0,0,0,0,0,0],"id":8,"left_children":[1,3,5,-1,-1,-1,-1],"loss_changes":[3.5106838E-1,5.1157564E-2,1.1059797E-1,0E0,0E0,0E0,0E0],"parents":[2147483647,0,0,1,1,2,2],"right_children":[2,4,6,-1,-1,-1,-1],"split_conditions":[-1.3E-2,-5.9E-2,3.8E-2,-1.7322515E-3,-4.7762596E-4,1.1637851E-4,1.0552565E-3],"split_indices":[20,20,20,0,0,0,0],"split_type":[0,0,0,0,0,0,0],"sum_hessian":[1.536E3,4.31E2,1.105E3,8.1E1,3.5E2,9.11E2,1.94E2],"tree_param":{"num_deleted":"0","num_feature":"54","num_nodes":"7","size_leaf_vector":"1"}},{"base_weights":[-0E0,-2.206156E-2,9.629852E-3,-1.7904209E-3,-4.6212127E-4,1.5352292E-4,1.165455E-3],"categories":[],"categories_nodes":[],"categories_segments":[],"categories_sizes":[],"default_left":[0,0,0,0,0,0,0],"id":9,"left_children":[1,3,5,-1,-1,-1,-1],"loss_changes":[3.3103523E-1,5.482723E-2,9.8000586E-2,0E0,0E0,0E0,0E0],"parents":[2147483647,0,0,1,1,2,2],"right_children":[2,4,6,-1,-1,-1,-1],"split_conditions":[-1.1E-2,-6.7E-2,4.9E-2,-1.7904209E-3,-4.6212127E-4,1.5352292E-4,1.165455E-3],"split_indices":[20,20,20,0,0,0,0],"split_type":[0,0,0,0,0,0,0],"sum_hessian":[1.536E3,4.68E2,1.068E3,6.7E1,4.01E2,9.26E2,1.42E2],"tree_param":{"num_deleted":"0","num_feature":"54","num_nodes":"7","size_leaf_vector":"1"}},{"base_weights":[-0E0,-2.2693703E-2,8.822568E-3,-1.604482E-3,-4.3994485E-4,-0E0,6.6168344E-4],"categories":[],"categories_nodes":[],"categories_segments":[],"categories_sizes":[],"default_left":[0,0,0,0,0,0,0],"id":10,"left_children":[1,3,5,-1,-1,-1,-1],"loss_changes":[3.1228867E-1,4.3406725E-2,9.80188E-2,0E0,0E0,0E0,0E0],"parents":[2147483647,0,0,1,1,2,2],"right_children":[2,4,6,-1,-1,-1,-1],"split_conditions":[-1.3E-2,-5.8E-2,1.1E-2,-1.604482E-3,-4.3994485E-4,-0E0,6.6168344E-4],"split_indices":[20,20,20,0,0,0,0],"split_type":[0,0,0,0,0,0,0],"sum_hessian":[1.536E3,4.31E2,1.105E3,8.5E1,3.46E2,6.33E2,4.72E2],"tree_param":{"num_deleted":"0","num_feature":"54","num_nodes":"7","size_leaf_vector":"1"}},{"base_weights":[-0E0,-2.5476668E-2,7.195405E-3,-1.9749496E-3,-5.57642E-4,-0E0,6.248743E-4],"categories":[],"categories_nodes":[],"categories_segments":[],"categories_sizes":[],"default_left":[0,0,0,0,0,0,0],"id":11,"left_children":[1,3,5,-1,-1,-1,-1],"loss_changes":[2.8710142E-1,2.4391085E-2,9.9531084E-2,0E0,0E0,0E0,0E0],"parents":[2147483647,0,0,1,1,2,2],"right_children":[2,4,6,-1,-1,-1,-1],"split_conditions":[-2.7E-2,-1.02E-1,1.8E-2,-1.9749496E-3,-5.57642E-4,-0E0,6.248743E-4],"split_indices":[3,3,3,0,0,0,0],"split_type":[0,0,0,0,0,0,0],"sum_hessian":[1.536E3,3.39E2,1.197E3,4.1E1,2.98E2,7.33E2,4.64E2],"tree_param":{"num_deleted":"0","num_feature":"54","num_nodes":"7","size_leaf_vector":"1"}},{"base_weights":[-0E0,-2.1646518E-2,8.350152E-3,-1.6504083E-3,-4.455386E-4,1.2218351E-4,1.0900924E-3],"categories":[],"categories_nodes":[],"categories_segments":[],"categories_sizes":[],"default_left":[0,0,0,0,0,0,0],"id":12,"left_children":[1,3,5,-1,-1,-1,-1],"loss_changes":[2.8291515E-1,3.7442E-2,9.12322E-2,0E0,0E0,0E0,0E0],"parents":[2147483647,0,0,1,1,2,2],"right_children":[2,4,6,-1,-1,-1,-1],"split_conditions":[-1.3E-2,-6.7E-2,4.9E-2,-1.6504083E-3,-4.455386E-4,1.2218351E-4,1.0900924E-3],"split_indices":[20,20,20,0,0,0,0],"split_type":[0,0,0,0,0,0,0],"sum_hessian":[1.536E3,4.31E2,1.105E3,6.7E1,3.64E2,9.63E2,1.42E2],"tree_param":{"num_deleted":"0","num_feature":"54","num_nodes":"7","size_leaf_vector":"1"}},{"base_weights":[-0E0,-1.98804E-2,8.601982E-3,-1.0783161E-3,-1.9757244E-4,1.0604272E-4,9.267667E-4],"categories":[],"categories_nodes":[],"categories_segments":[],"categories_sizes":[],"default_left":[0,0,0,0,0,0,0],"id":13,"left_children":[1,3,5,-1,-1,-1,-1],"loss_changes":[2.6740575E-1,4.3513715E-2,8.123086E-2,0E0,0E0,0E0,0E0],"parents":[2147483647,0,0,1,1,2,2],"right_children":[2,4,6,-1,-1,-1,-1],"split_conditions":[-1.1E-2,-3.2E-2,3.8E-2,-1.0783161E-3,-1.9757244E-4,1.0604272E-4,9.267667E-4],"split_indices":[20,20,20,0,0,0,0],"split_type":[0,0,0,0,0,0,0],"sum_hessian":[1.536E3,4.68E2,1.068E3,2.1E2,2.58E2,8.74E2,1.94E2],"tree_param":{"num_deleted":"0","num_feature":"54","num_nodes":"7","size_leaf_vector":"1"}},{"base_weights":[-0E0,-1.3660842E-2,1.1894097E-2,-1.0431769E-3,-1.4899841E-4,2.12599E-4,1.0254055E-3],"categories":[],"categories_nodes":[],"categories_segments":[],"categories_sizes":[],"default_left":[0,0,0,0,0,0,0],"id":14,"left_children":[1,3,5,-1,-1,-1,-1],"loss_changes":[2.522807E-1,8.204329E-2,4.88967E-2,0E0,0E0,0E0,0E0],"parents":[2147483647,0,0,1,1,2,2],"right_children":[2,4,6,-1,-1,-1,-1],"split_conditions":[-2E-3,-3.2E-2,4.9E-2,-1.0431769E-3,-1.4899841E-4,2.12599E-4,1.0254055E-3],"split_indices":[20,20,20,0,0,0,0],"split_type":[0,0,0,0,0,0,0],"sum_hessian":[1.536E3,7.22E2,8.14E2,2.1E2,5.12E2,6.72E2,1.42E2],"tree_param":{"num_deleted":"0","num_feature":"54","num_nodes":"7","size_leaf_vector":"1"}},{"base_weights":[-0E0,-2.32468E-2,6.528772E-3,-1.1879826E-3,-2.394989E-4,-0E0,6.3170027E-4],"categories":[],"categories_nodes":[],"categories_segments":[],"categories_sizes":[],"default_left":[0,0,0,0,0,0,0],"id":15,"left_children":[1,3,5,-1,-1,-1,-1],"loss_changes":[2.3846215E-1,2.517882E-2,1.0954134E-1,0E0,0E0,0E0,0E0],"parents":[2147483647,0,0,1,1,2,2],"right_children":[2,4,6,-1,-1,-1,-1],"split_conditions":[-2.7E-2,-3.3E-2,1.1E-2,-1.1879826E-3,-2.394989E-4,-0E0,6.3170027E-4],"split_indices":[3,20,20,0,0,0,0],"split_type":[0,0,0,0,0,0,0],"sum_hessian":[1.536E3,3.39E2,1.197E3,1.56E2,1.83E2,7.46E2,4.51E2],"tree_param":{"num_deleted":"0","num_feature":"54","num_nodes":"7","size_leaf_vector":"1"}},{"base_weights":[-0E0,-1.831304E-2,7.868364E-3,-1.5006348E-3,-3.677147E-4,1.15777715E-4,9.736345E-4],"categories":[],"categories_nodes":[],"categories_segments":[],"categories_sizes":[],"default_left":[0,0,0,0,0,0,0],"id":16,"left_children":[1,3,5,-1,-1,-1,-1],"loss_changes":[2.2596213E-1,3.6307186E-2,6.891656E-2,0E0,0E0,0E0,0E0],"parents":[2147483647,0,0,1,1,2,2],"right_children":[2,4,6,-1,-1,-1,-1],"split_conditions":[-1.1E-2,-6.7E-2,4.9E-2,-1.5006348E-3,-3.677147E-4,1.15777715E-4,9.736345E-4],"split_indices":[20,20,20,0,0,0,0],"split_type":[0,0,0,0,0,0,0],"sum_hessian":[1.536E3,4.68E2,1.068E3,6.7E1,4.01E2,9.26E2,1.42E2],"tree_param":{"num_deleted":"0","num_feature":"54","num_nodes":"7","size_leaf_vector":"1"}},{"base_weights":[-0E0,-1.2653708E-2,1.0943366E-2,-9.5644005E-4,-1.3760218E-4,1.9208287E-4,9.4240706E-4],"categories":[],"categories_nodes":[],"categories_segments":[],"categories_sizes":[],"default_left":[0,0,0,0,0,0,0],"id":17,"left_children":[1,3,5,-1,-1,-1,-1],"loss_changes":[2.1512169E-1,6.6727914E-2,4.0319905E-2,0E0,0E0,0E0,0E0],"parents":[2147483647,0,0,1,1,2,2],"right_children":[2,4,6,-1,-1,-1,-1],"split_conditions":[-2E-3,-3.2E-2,4.9E-2,-9.5644005E-4,-1.3760218E-4,1.9208287E-4,9.4240706E-4],"split_indices":[20,20,20,0,0,0,0],"split_type":[0,0,0,0,0,0,0],"sum_hessian":[1.536E3,7.22E2,8.14E2,2.1E2,5.12E2,6.72E2,1.42E2],"tree_param":{"num_deleted":"0","num_feature":"54","num_nodes":"7","size_leaf_vector":"1"}},{"base_weights":[-0E0,-2.1673061E-2,6.039055E-3,-1.5513604E-3,-4.1592913E-4,-0E0,5.845525E-4],"categories":[],"categories_nodes":[],"categories_segments":[],"categories_sizes":[],"default_left":[0,0,0,0,0,0,0],"id":18,"left_children":[1,3,5,-1,-1,-1,-1],"loss_changes":[2.0657152E-1,1.941453E-2,9.383544E-2,0E0,0E0,0E0,0E0],"parents":[2147483647,0,0,1,1,2,2],"right_children":[2,4,6,-1,-1,-1,-1],"split_conditions":[-2.7E-2,-2.22E-1,1.1E-2,-1.5513604E-3,-4.1592913E-4,-0E0,5.845525E-4],"split_indices":[3,5,20,0,0,0,0],"split_type":[0,0,0,0,0,0,0],"sum_hessian":[1.536E3,3.39E2,1.197E3,5.8E1,2.81E2,7.46E2,4.51E2],"tree_param":{"num_deleted":"0","num_feature":"54","num_nodes":"7","size_leaf_vector":"1"}},{"base_weights":[-0E0,-2.1075685E-2,5.8201402E-3,-9.519642E-4,-6.049175E-5,-0E0,5.786523E-4],"categories":[],"categories_nodes":[],"categories_segments":[],"categories_sizes":[],"default_left":[0,0,0,0,0,0,0],"id":19,"left_children":[1,3,5,-1,-1,-1,-1],"loss_changes":[1.9460225E-1,1.9050255E-2,8.800934E-2,0E0,0E0,0E0,0E0],"parents":[2147483647,0,0,1,1,2,2],"right_children":[2,4,6,-1,-1,-1,-1],"split_conditions":[-2.7E-2,-2.2E-2,1.2E-2,-9.519642E-4,-6.049175E-5,-0E0,5.786523E-4],"split_indices":[3,20,20,0,0,0,0],"split_type":[0,0,0,0,0,0,0],"sum_hessian":[1.536E3,3.39E2,1.197E3,2.09E2,1.3E2,7.67E2,4.3E2],"tree_param":{"num_deleted":"0","num_feature":"54","num_nodes":"7","size_leaf_vector":"1"}},{"base_weights":[-0E0,-1.174574E-2,1.0027072E-2,-8.82252E-4,-1.2565088E-4,1.01620855E-4,6.8648765E-4],"categories":[],"categories_nodes":[],"categories_segments":[],"categories_sizes":[],"default_left":[0,0,0,0,0,0,0],"id":20,"left_children":[1,3,5,-1,-1,-1,-1],"loss_changes":[1.8318464E-1,5.5374257E-2,3.6980376E-2,0E0,0E0,0E0,0E0],"parents":[2147483647,0,0,1,1,2,2],"right_children":[2,4,6,-1,-1,-1,-1],"split_conditions":[-2E-3,-3.2E-2,3.5E-2,-8.82252E-4,-1.2565088E-4,1.01620855E-4,6.8648765E-4],"split_indices":[20,20,3,0,0,0,0],"split_type":[0,0,0,0,0,0,0],"sum_hessian":[1.536E3,7.22E2,8.14E2,2.1E2,5.12E2,5.45E2,2.69E2],"tree_param":{"num_deleted":"0","num_feature":"54","num_nodes":"7","size_leaf_vector":"1"}},{"base_weights":[-0E0,-1.1403473E-2,9.734783E-3,-1.3386076E-3,-2.2513239E-4,1.6085358E-4,8.6032826E-4],"categories":[],"categories_nodes":[],"categories_segments":[],"categories_sizes":[],"default_left":[0,0,0,0,0,0,0],"id":21,"left_children":[1,3,5,-1,-1,-1,-1],"loss_changes":[1.7266265E-1,5.177202E-2,3.4827903E-2,0E0,0E0,0E0,0E0],"parents":[2147483647,0,0,1,1,2,2],"right_children":[2,4,6,-1,-1,-1,-1],"split_conditions":[-2E-3,-6.7E-2,4.9E-2,-1.3386076E-3,-2.2513239E-4,1.6085358E-4,8.6032826E-4],"split_indices":[20,20,20,0,0,0,0],"split_type":[0,0,0,0,0,0,0],"sum_hessian":[1.536E3,7.22E2,8.14E2,6.7E1,6.55E2,6.72E2,1.42E2],"tree_param":{"num_deleted":"0","num_feature":"54","num_nodes":"7","size_leaf_vector":"1"}},{"base_weights":[-0E0,-1.9649893E-2,5.388957E-3,-8.9048926E-4,-1.6994563E-5,5.013522E-5,9.371592E-4],"categories":[],"categories_nodes":[],"categories_segments":[],"categories_sizes":[],"default_left":[0,0,0,0,0,0,0],"id":22,"left_children":[1,3,5,-1,-1,-1,-1],"loss_changes":[1.6867511E-1,1.9292593E-2,7.731338E-2,0E0,0E0,0E0,0E0],"parents":[2147483647,0,0,1,1,2,2],"right_children":[2,4,6,-1,-1,-1,-1],"split_conditions":[-2.7E-2,-9.6E-1,4.9E-2,-8.9048926E-4,-1.6994563E-5,5.013522E-5,9.371592E-4],"split_indices":[3,43,20,0,0,0,0],"split_type":[0,0,0,0,0,0,0],"sum_hessian":[1.536E3,3.39E2,1.197E3,2.12E2,1.27E2,1.062E3,1.35E2],"tree_param":{"num_deleted":"0","num_feature":"54","num_nodes":"7","size_leaf_vector":"1"}},{"base_weights":[-0E0,-1.5344407E-2,6.5002255E-3,-1.2760267E-3,-2.9206055E-4,6.951047E-5,7.0815196E-4],"categories":[],"categories_nodes":[],"categories_segments":[],"categories_sizes":[],"default_left":[0,0,0,0,0,0,0],"id":23,"left_children":[1,3,5,-1,-1,-1,-1],"loss_changes":[1.5733662E-1,2.5118783E-2,4.7104675E-2,0E0,0E0,0E0,0E0],"parents":[2147483647,0,0,1,1,2,2],"right_children":[2,4,6,-1,-1,-1,-1],"split_conditions":[-1.1E-2,-6.7E-2,3.8E-2,-1.2760267E-3,-2.9206055E-4,6.951047E-5,7.0815196E-4],"split_indices":[20,20,20,0,0,0,0],"split_type":[0,0,0,0,0,0,0],"sum_hessian":[1.536E3,4.68E2,1.068E3,6.7E1,4.01E2,8.74E2,1.94E2],"tree_param":{"num_deleted":"0","num_feature":"54","num_nodes":"7","size_leaf_vector":"1"}},{"base_weights":[-0E0,-1.06104575E-2,9.058056E-3,-7.9716655E-4,-1.0749574E-4,-0E0,4.7053557E-4],"categories":[],"categories_nodes":[],"categories_segments":[],"categories_sizes":[],"default_left":[0,0,0,0,0,0,0],"id":24,"left_children":[1,3,5,-1,-1,-1,-1],"loss_changes":[1.4948682E-1,4.463785E-2,2.8301306E-2,0E0,0E0,0E0,0E0],"parents":[2147483647,0,0,1,1,2,2],"right_children":[2,4,6,-1,-1,-1,-1],"split_conditions":[-2E-3,-3.2E-2,4.11E1,-7.9716655E-4,-1.0749574E-4,-0E0,4.7053557E-4],"split_indices":[20,20,2,0,0,0,0],"split_type":[0,0,0,0,0,0,0],"sum_hessian":[1.536E3,7.22E2,8.14E2,2.1E2,5.12E2,3.3E2,4.84E2],"tree_param":{"num_deleted":"0","num_feature":"54","num_nodes":"7","size_leaf_vector":"1"}},{"base_weights":[-0E0,-1.8357456E-2,5.0259386E-3,-1.5447519E-3,-3.5340263E-4,4.519397E-5,8.7069505E-4],"categories":[],"categories_nodes":[],"categories_segments":[],"categories_sizes":[],"default_left":[0,0,0,0,0,0,0],"id":25,"left_children":[1,3,5,-1,-1,-1,-1],"loss_changes":[1.4711238E-1,1.818116E-2,6.638474E-2,0E0,0E0,0E0,0E0],"parents":[2147483647,0,0,1,1,2,2],"right_children":[2,4,6,-1,-1,-1,-1],"split_conditions":[-2.7E-2,-1.02E-1,4.9E-2,-1.5447519E-3,-3.5340263E-4,4.519397E-5,8.7069505E-4],"split_indices":[3,3,20,0,0,0,0],"split_type":[0,0,0,0,0,0,0],"sum_hessian":[1.536E3,3.39E2,1.197E3,4.1E1,2.98E2,1.062E3,1.35E2],"tree_param":{"num_deleted":"0","num_feature":"54","num_nodes":"7","size_leaf_vector":"1"}},{"base_weights":[-0E0,-1.7870415E-2,4.888478E-3,-1.500516E-3,-3.4177132E-4,-0E0,4.4835536E-4],"categories":[],"categories_nodes":[],"categories_segments":[],"categories_sizes":[],"default_left":[0,0,0,0,0,0,0],"id":26,"left_children":[1,3,5,-1,-1,-1,-1],"loss_changes":[1.3936137E-1,1.6398959E-2,5.456153E-2,0E0,0E0,0E0,0E0],"parents":[2147483647,0,0,1,1,2,2],"right_children":[2,4,6,-1,-1,-1,-1],"split_conditions":[-2.7E-2,-1.02E-1,1.8E-2,-1.500516E-3,-3.4177132E-4,-0E0,4.4835536E-4],"split_indices":[3,3,3,0,0,0,0],"split_type":[0,0,0,0,0,0,0],"sum_hessian":[1.536E3,3.39E2,1.197E3,4.1E1,2.98E2,7.33E2,4.64E2],"tree_param":{"num_deleted":"0","num_feature":"54","num_nodes":"7","size_leaf_vector":"1"}},{"base_weights":[-0E0,-1.1318661E-2,7.3762964E-3,-1.1585659E-3,-2.1766698E-4,-0E0,4.158792E-4],"categories":[],"categories_nodes":[],"categories_segments":[],"categories_sizes":[],"default_left":[0,0,0,0,0,0,0],"id":27,"left_children":[1,3,5,-1,-1,-1,-1],"loss_changes":[1.3081725E-1,3.0432753E-2,3.1065766E-2,0E0,0E0,0E0,0E0],"parents":[2147483647,0,0,1,1,2,2],"right_children":[2,4,6,-1,-1,-1,-1],"split_conditions":[-5E-3,-6.7E-2,4.11E1,-1.1585659E-3,-2.1766698E-4,-0E0,4.158792E-4],"split_indices":[20,20,2,0,0,0,0],"split_type":[0,0,0,0,0,0,0],"sum_hessian":[1.536E3,6.23E2,9.13E2,6.7E1,5.56E2,3.87E2,5.26E2],"tree_param":{"num_deleted":"0","num_feature":"54","num_nodes":"7","size_leaf_vector":"1"}},{"base_weights":[-0E0,-1.4462456E-2,5.369863E-3,-5.636281E-4,-0E0,-0E0,4.1455516E-4],"categories":[],"categories_nodes":[],"categories_segments":[],"categories_sizes":[],"default_left":[0,0,0,0,0,0,0],"id":28,"left_children":[1,3,5,-1,-1,-1,-1],"loss_changes":[1.23743E-1,2.4103418E-2,4.038498E-2,0E0,0E0,0E0,0E0],"parents":[2147483647,0,0,1,1,2,2],"right_children":[2,4,6,-1,-1,-1,-1],"split_conditions":[-1.3E-2,6.6E-2,1.1E-2,-5.636281E-4,-0E0,-0E0,4.1455516E-4],"split_indices":[20,4,20,0,0,0,0],"split_type":[0,0,0,0,0,0,0],"sum_hessian":[1.536E3,4.31E2,1.105E3,4.07E2,2.4E1,6.33E2,4.72E2],"tree_param":{"num_deleted":"0","num_feature":"54","num_nodes":"7","size_leaf_vector":"1"}},{"base_weights":[-0E0,-9.397696E-3,7.9406835E-3,-7.0671085E-4,-8.7918954E-5,1.2193449E-4,7.0463005E-4],"categories":[],"categories_nodes":[],"categories_segments":[],"categories_sizes":[],"default_left":[0,0,0,0,0,0,0],"id":29,"left_children":[1,3,5,-1,-1,-1,-1],"loss_changes":[1.1619177E-1,3.458512E-2,2.2298478E-2,0E0,0E0,0E0,0E0],"parents":[2147483647,0,0,1,1,2,2],"right_children":[2,4,6,-1,-1,-1,-1],"split_conditions":[-2E-3,-3.2E-2,4.9E-2,-7.0671085E-4,-8.7918954E-5,1.2193449E-4,7.0463005E-4],"split_indices":[20,20,20,0,0,0,0],"split_type":[0,0,0,0,0,0,0],"sum_hessian":[1.536E3,7.22E2,8.14E2,2.1E2,5.12E2,6.72E2,1.42E2],"tree_param":{"num_deleted":"0","num_feature":"54","num_nodes":"7","size_leaf_vector":"1"}},{"base_weights":[-0E0,-9.132468E-3,7.7190795E-3,-1.084948E-3,-1.6926521E-4,-0E0,3.9488985E-4],"categories":[],"categories_nodes":[],"categories_segments":[],"categories_sizes":[],"default_left":[0,0,0,0,0,0,0],"id":30,"left_children":[1,3,5,-1,-1,-1,-1],"loss_changes":[1.0975756E-1,3.2779258E-2,2.2436045E-2,0E0,0E0,0E0,0E0],"parents":[2147483647,0,0,1,1,2,2],"right_children":[2,4,6,-1,-1,-1,-1],"split_conditions":[-2E-3,-6.7E-2,1.698E0,-1.084948E-3,-1.6926521E-4,-0E0,3.9488985E-4],"split_indices":[20,20,0,0,0,0,0],"split_type":[0,0,0,0,0,0,0],"sum_hessian":[1.536E3,7.22E2,8.14E2,6.7E1,6.55E2,3.01E2,5.13E2],"tree_param":{"num_deleted":"0","num_feature":"54","num_nodes":"7","size_leaf_vector":"1"}},{"base_weights":[-0E0,-1.6099168E-2,4.347095E-3,-7.3846825E-4,-0E0,-0E0,4.006087E-4],"categories":[],"categories_nodes":[],"categories_segments":[],"categories_sizes":[],"default_left":[0,0,0,0,0,0,0],"id":31,"left_children":[1,3,5,-1,-1,-1,-1],"loss_changes":[1.1250533E-1,1.5444785E-2,4.3777708E-2,0E0,0E0,0E0,0E0],"parents":[2147483647,0,0,1,1,2,2],"right_children":[2,4,6,-1,-1,-1,-1],"split_conditions":[-2.7E-2,-9.6E-1,1.8E-2,-7.3846825E-4,-0E0,-0E0,4.006087E-4],"split_indices":[3,43,3,0,0,0,0],"split_type":[0,0,0,0,0,0,0],"sum_hessian":[1.536E3,3.39E2,1.197E3,2.12E2,1.27E2,7.33E2,4.64E2],"tree_param":{"num_deleted":"0","num_feature":"54","num_nodes":"7","size_leaf_vector":"1"}},{"base_weights":[-0E0,-1.564705E-2,4.1927425E-3,-1.3557234E-3,-2.7963714E-4,2.8567E-5,7.57874E-4],"categories":[],"categories_nodes":[],"categories_segments":[],"categories_sizes":[],"default_left":[0,0,0,0,0,0,0],"id":32,"left_children":[1,3,5,-1,-1,-1,-1],"loss_changes":[1.0594788E-1,1.4272712E-2,5.148496E-2,0E0,0E0,0E0,0E0],"parents":[2147483647,0,0,1,1,2,2],"right_children":[2,4,6,-1,-1,-1,-1],"split_conditions":[-2.7E-2,-1.02E-1,4.9E-2,-1.3557234E-3,-2.7963714E-4,2.8567E-5,7.57874E-4],"split_indices":[3,3,20,0,0,0,0],"split_type":[0,0,0,0,0,0,0],"sum_hessian":[1.536E3,3.39E2,1.197E3,4.1E1,2.98E2,1.062E3,1.35E2],"tree_param":{"num_deleted":"0","num_feature":"54","num_nodes":"7","size_leaf_vector":"1"}},{"base_weights":[-0E0,-8.561693E-3,7.161006E-3,-1.1347549E-3,-1.6732186E-4,-0E0,3.6821194E-4],"categories":[],"categories_nodes":[],"categories_segments":[],"categories_sizes":[],"default_left":[0,0,0,0,0,0,0],"id":33,"left_children":[1,3,5,-1,-1,-1,-1],"loss_changes":[9.557237E-2,2.8148439E-2,1.9938443E-2,0E0,0E0,0E0,0E0],"parents":[2147483647,0,0,1,1,2,2],"right_children":[2,4,6,-1,-1,-1,-1],"split_conditions":[-2E-3,-8.2E-2,1.698E0,-1.1347549E-3,-1.6732186E-4,-0E0,3.6821194E-4],"split_indices":[20,20,0,0,0,0,0],"split_type":[0,0,0,0,0,0,0],"sum_hessian":[1.536E3,7.22E2,8.14E2,5E1,6.72E2,3.01E2,5.13E2],"tree_param":{"num_deleted":"0","num_feature":"54","num_nodes":"7","size_leaf_vector":"1"}},{"base_weights":[-0E0,-1.4995923E-2,3.9943517E-3,-1.1578404E-3,-2.3461378E-4,2.572258E-5,7.226333E-4],"categories":[],"categories_nodes":[],"categories_segments":[],"categories_sizes":[],"default_left":[0,0,0,0,0,0,0],"id":34,"left_children":[1,3,5,-1,-1,-1,-1],"loss_changes":[9.708286E-2,1.3067409E-2,4.6765737E-2,0E0,0E0,0E0,0E0],"parents":[2147483647,0,0,1,1,2,2],"right_children":[2,4,6,-1,-1,-1,-1],"split_conditions":[-2.7E-2,-2.22E-1,4.9E-2,-1.1578404E-3,-2.3461378E-4,2.572258E-5,7.226333E-4],"split_indices":[3,5,20,0,0,0,0],"split_type":[0,0,0,0,0,0,0],"sum_hessian":[1.536E3,3.39E2,1.197E3,5.8E1,2.81E2,1.062E3,1.35E2],"tree_param":{"num_deleted":"0","num_feature":"54","num_nodes":"7","size_leaf_vector":"1"}},{"base_weights":[-0E0,-1.2225492E-2,4.4808425E-3,-4.8502022E-4,-0E0,-0E0,3.4784034E-4],"categories":[],"categories_nodes":[],"categories_segments":[],"categories_sizes":[],"default_left":[0,0,0,0,0,0,0],"id":35,"left_children":[1,3,5,-1,-1,-1,-1],"loss_changes":[8.783746E-2,2.0226866E-2,2.8680813E-2,0E0,0E0,0E0,0E0],"parents":[2147483647,0,0,1,1,2,2],"right_children":[2,4,6,-1,-1,-1,-1],"split_conditions":[-1.3E-2,6.6E-2,1.1E-2,-4.8502022E-4,-0E0,-0E0,3.4784034E-4],"split_indices":[20,4,20,0,0,0,0],"split_type":[0,0,0,0,0,0,0],"sum_hessian":[1.536E3,4.31E2,1.105E3,4.07E2,2.4E1,6.33E2,4.72E2],"tree_param":{"num_deleted":"0","num_feature":"54","num_nodes":"7","size_leaf_vector":"1"}},{"base_weights":[-0E0,-1.1775079E-2,4.3332344E-3,-4.6895456E-4,-0E0,3.031606E-5,5.280377E-4],"categories":[],"categories_nodes":[],"categories_segments":[],"categories_sizes":[],"default_left":[0,0,0,0,0,0,0],"id":36,"left_children":[1,3,5,-1,-1,-1,-1],"loss_changes":[8.165257E-2,1.9379176E-2,2.75148E-2,0E0,0E0,0E0,0E0],"parents":[2147483647,0,0,1,1,2,2],"right_children":[2,4,6,-1,-1,-1,-1],"split_conditions":[-1.3E-2,6.6E-2,3.9E-2,-4.6895456E-4,-0E0,3.031606E-5,5.280377E-4],"split_indices":[20,4,20,0,0,0,0],"split_type":[0,0,0,0,0,0,0],"sum_hessian":[1.536E3,4.31E2,1.105E3,4.07E2,2.4E1,9.18E2,1.87E2],"tree_param":{"num_deleted":"0","num_feature":"54","num_nodes":"7","size_leaf_vector":"1"}},{"base_weights":[-0E0,-1.3981468E-2,3.7904477E-3,-1.2456763E-3,-2.3334047E-4,2.478431E-5,6.714934E-4],"categories":[],"categories_nodes":[],"categories_segments":[],"categories_sizes":[],"default_left":[0,0,0,0,0,0,0],"id":37,"left_children":[1,3,5,-1,-1,-1,-1],"loss_changes":[8.4992155E-2,1.2826122E-2,3.9709564E-2,0E0,0E0,0E0,0E0],"parents":[2147483647,0,0,1,1,2,2],"right_children":[2,4,6,-1,-1,-1,-1],"split_conditions":[-2.7E-2,-1.02E-1,4.9E-2,-1.2456763E-3,-2.3334047E-4,2.478431E-5,6.714934E-4],"split_indices":[3,3,20,0,0,0,0],"split_type":[0,0,0,0,0,0,0],"sum_hessian":[1.536E3,3.39E2,1.197E3,4.1E1,2.98E2,1.062E3,1.35E2],"tree_param":{"num_deleted":"0","num_feature":"54","num_nodes":"7","size_leaf_vector":"1"}},{"base_weights":[-0E0,-1.3633163E-2,3.6933166E-3,-1.0752323E-3,-1.9812775E-4,2.3954375E-5,6.500108E-4],"categories":[],"categories_nodes":[],"categories_segments":[],"categories_sizes":[],"default_left":[0,0,0,0,0,0,0],"id":38,"left_children":[1,3,5,-1,-1,-1,-1],"loss_changes":[8.0786206E-2,1.1980705E-2,3.6993764E-2,0E0,0E0,0E0,0E0],"parents":[2147483647,0,0,1,1,2,2],"right_children":[2,4,6,-1,-1,-1,-1],"split_conditions":[-2.7E-2,-2.22E-1,4.9E-2,-1.0752323E-3,-1.9812775E-4,2.3954375E-5,6.500108E-4],"split_indices":[3,5,20,0,0,0,0],"split_type":[0,0,0,0,0,0,0],"sum_hessian":[1.536E3,3.39E2,1.197E3,5.8E1,2.81E2,1.062E3,1.35E2],"tree_param":{"num_deleted":"0","num_feature":"54","num_nodes":"7","size_leaf_vector":"1"}},{"base_weights":[-0E0,-7.899678E-3,4.422614E-3,-1.1685187E-3,-1.3201385E-4,1.4793594E-5,5.3583656E-4],"categories":[],"categories_nodes":[],"categories_segments":[],"categories_sizes":[],"default_left":[0,0,0,0,0,0,0],"id":39,"left_children":[1,3,5,-1,-1,-1,-1],"loss_changes":[5.51042E-2,2.4204511E-2,2.8941803E-2,0E0,0E0,0E0,0E0],"parents":[2147483647,0,0,1,1,2,2],"right_children":[2,4,6,-1,-1,-1,-1],"split_conditions":[-1.4E-2,-2.02E-1,6.05E0,-1.1685187E-3,-1.3201385E-4,1.4793594E-5,5.3583656E-4],"split_indices":[4,4,41,0,0,0,0],"split_type":[0,0,0,0,0,0,0],"sum_hessian":[1.536E3,5.71E2,9.65E2,3.6E1,5.35E2,7.83E2,1.82E2],"tree_param":{"num_deleted":"0","num_feature":"54","num_nodes":"7","size_leaf_vector":"1"}},{"base_weights":[-0E0,-4.100843E-3,8.482881E-3,-8.8061736E-4,-5.4324344E-5,9.72362E-5,7.95473E-4],"categories":[],"categories_nodes":[],"categories_segments":[],"categories_sizes":[],"default_left":[0,0,0,0,0,0,0],"id":40,"left_children":[1,3,5,-1,-1,-1,-1],"loss_changes":[5.277928E-2,3.1933412E-2,1.5450489E-2,0E0,0E0,0E0,0E0],"parents":[2147483647,0,0,1,1,2,2],"right_children":[2,4,6,-1,-1,-1,-1],"split_conditions":[1.49E0,-1.55E-1,2.06E-1,-8.8061736E-4,-5.4324344E-5,9.72362E-5,7.95473E-4],"split_indices":[38,4,24,0,0,0,0],"split_type":[0,0,0,0,0,0,0],"sum_hessian":[1.536E3,1.059E3,4.77E2,6.2E1,9.97E2,4E2,7.7E1],"tree_param":{"num_deleted":"0","num_feature":"54","num_nodes":"7","size_leaf_vector":"1"}},{"base_weights":[-0E0,-1.290143E-2,3.4970734E-3,-6.64944E-4,-0E0,9.6195645E-6,5.52834E-4],"categories":[],"categories_nodes":[],"categories_segments":[],"categories_sizes":[],"default_left":[0,0,0,0,0,0,0],"id":41,"left_children":[1,3,5,-1,-1,-1,-1],"loss_changes":[7.23636E-2,1.2483321E-2,3.409322E-2,0E0,0E0,0E0,0E0],"parents":[2147483647,0,0,1,1,2,2],"right_children":[2,4,6,-1,-1,-1,-1],"split_conditions":[-2.7E-2,-3.45E0,2.9E-1,-6.64944E-4,-0E0,9.6195645E-6,5.52834E-4],"split_indices":[3,43,36,0,0,0,0],"split_type":[0,0,0,0,0,0,0],"sum_hessian":[1.536E3,3.39E2,1.197E3,1.73E2,1.66E2,1.023E3,1.74E2],"tree_param":{"num_deleted":"0","num_feature":"54","num_nodes":"7","size_leaf_vector":"1"}},{"base_weights":[-0E0,-7.0670983E-3,5.9747086E-3,-4.5911517E-4,-8.538019E-7,2.1991662E-5,4.320929E-4],"categories":[],"categories_nodes":[],"categories_segments":[],"categories_sizes":[],"default_left":[0,0,0,0,0,0,0],"id":42,"left_children":[1,3,5,-1,-1,-1,-1],"loss_changes":[6.573974E-2,2.0740729E-2,1.7113378E-2,0E0,0E0,0E0,0E0],"parents":[2147483647,0,0,1,1,2,2],"right_children":[2,4,6,-1,-1,-1,-1],"split_conditions":[-2E-3,-1.06E0,6.606E1,-4.5911517E-4,-8.538019E-7,2.1991662E-5,4.320929E-4],"split_indices":[20,37,2,0,0,0,0],"split_type":[0,0,0,0,0,0,0],"sum_hessian":[1.536E3,7.22E2,8.14E2,3.01E2,4.21E2,5.4E2,2.74E2],"tree_param":{"num_deleted":"0","num_feature":"54","num_nodes":"7","size_leaf_vector":"1"}},{"base_weights":[-0E0,-6.87711E-3,5.81609E-3,-5.249144E-4,-4.4634384E-5,-0E0,3.0304055E-4],"categories":[],"categories_nodes":[],"categories_segments":[],"categories_sizes":[],"default_left":[0,0,0,0,0,0,0],"id":43,"left_children":[1,3,5,-1,-1,-1,-1],"loss_changes":[6.227176E-2,1.9084096E-2,1.424998E-2,0E0,0E0,0E0,0E0],"parents":[2147483647,0,0,1,1,2,2],"right_children":[2,4,6,-1,-1,-1,-1],"split_conditions":[-2E-3,-3.2E-2,1.698E0,-5.249144E-4,-4.4634384E-5,-0E0,3.0304055E-4],"split_indices":[20,20,0,0,0,0,0],"split_type":[0,0,0,0,0,0,0],"sum_hessian":[1.536E3,7.22E2,8.14E2,2.1E2,5.12E2,3.01E2,5.13E2],"tree_param":{"num_deleted":"0","num_feature":"54","num_nodes":"7","size_leaf_vector":"1"}},{"base_weights":[-0E0,-6.8540447E-3,6.09959E-3,-1.1007452E-3,-1.2460249E-4,5.61838E-5,6.7441945E-4],"categories":[],"categories_nodes":[],"categories_segments":[],"categories_sizes":[],"default_left":[0,0,0,0,0,0,0],"id":44,"left_children":[1,3,5,-1,-1,-1,-1],"loss_changes":[6.502036E-2,2.5893863E-2,2.8602948E-2,0E0,0E0,0E0,0E0],"parents":[2147483647,0,0,1,1,2,2],"right_children":[2,4,6,-1,-1,-1,-1],"split_conditions":[-2E-3,-1.02E-1,2.98E-1,-1.1007452E-3,-1.2460249E-4,5.61838E-5,6.7441945E-4],"split_indices":[3,3,36,0,0,0,0],"split_type":[0,0,0,0,0,0,0],"sum_hessian":[1.536E3,7.43E2,7.93E2,4.1E1,7.02E2,6.59E2,1.34E2],"tree_param":{"num_deleted":"0","num_feature":"54","num_nodes":"7","size_leaf_vector":"1"}},{"base_weights":[-0E0,-3.7222619E-3,7.6673445E-3,-9.0057246E-4,-4.2812248E-5,-0E0,4.4569245E-4],"categories":[],"categories_nodes":[],"categories_segments":[],"categories_sizes":[],"default_left":[0,0,0,0,0,0,0],"id":45,"left_children":[1,3,5,-1,-1,-1,-1],"loss_changes":[4.3242924E-2,3.3422012E-2,1.8060703E-2,0E0,0E0,0E0,0E0],"parents":[2147483647,0,0,1,1,2,2],"right_children":[2,4,6,-1,-1,-1,-1],"split_conditions":[1.49E0,-2.09E-1,4.99E0,-9.0057246E-4,-4.2812248E-5,-0E0,4.4569245E-4],"split_indices":[38,5,53,0,0,0,0],"split_type":[0,0,0,0,0,0,0],"sum_hessian":[1.536E3,1.059E3,4.77E2,5.8E1,1.001E3,2.18E2,2.59E2],"tree_param":{"num_deleted":"0","num_feature":"54","num_nodes":"7","size_leaf_vector":"1"}},{"base_weights":[-0E0,-6.5986286E-3,5.841211E-3,-1.0497669E-3,-1.1896271E-4,6.3940075E-5,6.327834E-4],"categories":[],"categories_nodes":[],"categories_segments":[],"categories_sizes":[],"default_left":[0,0,0,0,0,0,0],"id":46,"left_children":[1,3,5,-1,-1,-1,-1],"loss_changes":[5.9973355E-2,2.2959277E-2,2.101887E-2,0E0,0E0,0E0,0E0],"parents":[2147483647,0,0,1,1,2,2],"right_children":[2,4,6,-1,-1,-1,-1],"split_conditions":[-2E-3,-1.02E-1,2.42E-1,-1.0497669E-3,-1.1896271E-4,6.3940075E-5,6.327834E-4],"split_indices":[3,3,27,0,0,0,0],"split_type":[0,0,0,0,0,0,0],"sum_hessian":[1.536E3,7.43E2,7.93E2,4.1E1,7.02E2,6.7E2,1.23E2],"tree_param":{"num_deleted":"0","num_feature":"54","num_nodes":"7","size_leaf_vector":"1"}},{"base_weights":[-0E0,-1.1483275E-2,3.0773855E-3,-5.3810974E-4,-0E0,2.4963114E-5,6.334503E-4],"categories":[],"categories_nodes":[],"categories_segments":[],"categories_sizes":[],"default_left":[0,0,0,0,0,0,0],"id":47,"left_children":[1,3,5,-1,-1,-1,-1],"loss_changes":[5.706621E-2,1.0193821E-2,2.5656864E-2,0E0,0E0,0E0,0E0],"parents":[2147483647,0,0,1,1,2,2],"right_children":[2,4,6,-1,-1,-1,-1],"split_conditions":[-2.7E-2,-9.6E-1,2.06E-1,-5.3810974E-4,-0E0,2.4963114E-5,6.334503E-4],"split_indices":[3,43,24,0,0,0,0],"split_type":[0,0,0,0,0,0,0],"sum_hessian":[1.536E3,3.39E2,1.197E3,2.12E2,1.27E2,1.101E3,9.6E1],"tree_param":{"num_deleted":"0","num_feature":"54","num_nodes":"7","size_leaf_vector":"1"}},{"base_weights":[-0E0,-6.297833E-3,5.5987746E-3,-1.0057992E-3,-1.11227346E-4,4.7338224E-5,6.204862E-4],"categories":[],"categories_nodes":[],"categories_segments":[],"categories_sizes":[],"default_left":[0,0,0,0,0,0,0],"id":48,"left_children":[1,3,5,-1,-1,-1,-1],"loss_changes":[5.484337E-2,2.0920759E-2,2.4075398E-2,0E0,0E0,0E0,0E0],"parents":[2147483647,0,0,1,1,2,2],"right_children":[2,4,6,-1,-1,-1,-1],"split_conditions":[-2E-3,-1.02E-1,2.98E-1,-1.0057992E-3,-1.11227346E-4,4.7338224E-5,6.204862E-4],"split_indices":[3,3,36,0,0,0,0],"split_type":[0,0,0,0,0,0,0],"sum_hessian":[1.536E3,7.43E2,7.93E2,4.1E1,7.02E2,6.59E2,1.34E2],"tree_param":{"num_deleted":"0","num_feature":"54","num_nodes":"7","size_leaf_vector":"1"}},{"base_weights":[-0E0,-6.986127E-3,4.5243073E-3,-8.398151E-4,-1.1803178E-4,-0E0,2.680614E-4],"categories":[],"categories_nodes":[],"categories_segments":[],"categories_sizes":[],"default_left":[0,0,0,0,0,0,0],"id":49,"left_children":[1,3,5,-1,-1,-1,-1],"loss_changes":[4.959842E-2,1.18849985E-2,1.4872408E-2,0E0,0E0,0E0,0E0],"parents":[2147483647,0,0,1,1,2,2],"right_children":[2,4,6,-1,-1,-1,-1],"split_conditions":[-5E-3,-8.2E-2,4.11E1,-8.398151E-4,-1.1803178E-4,-0E0,2.680614E-4],"split_indices":[20,20,2,0,0,0,0],"split_type":[0,0,0,0,0,0,0],"sum_hessian":[1.536E3,6.23E2,9.13E2,5E1,5.73E2,3.87E2,5.26E2],"tree_param":{"num_deleted":"0","num_feature":"54","num_nodes":"7","size_leaf_vector":"1"}},{"base_weights":[-0E0,-6.0552983E-3,5.3384057E-3,-4.4509597E-4,-6.5733034E-6,4.246005E-5,5.9376477E-4],"categories":[],"categories_nodes":[],"categories_segments":[],"categories_sizes":[],"default_left":[0,0,0,0,0,0,0],"id":50,"left_children":[1,3,5,-1,-1,-1,-1],"loss_changes":[5.0316572E-2,1.8740198E-2,2.2065192E-2,0E0,0E0,0E0,0E0],"parents":[2147483647,0,0,1,1,2,2],"right_children":[2,4,6,-1,-1,-1,-1],"split_conditions":[-2E-3,-2.2E-2,2.98E-1,-4.4509597E-4,-6.5733034E-6,4.246005E-5,5.9376477E-4],"split_indices":[3,20,36,0,0,0,0],"split_type":[0,0,0,0,0,0,0],"sum_hessian":[1.536E3,7.43E2,7.93E2,2.58E2,4.85E2,6.59E2,1.34E2],"tree_param":{"num_deleted":"0","num_feature":"54","num_nodes":"7","size_leaf_vector":"1"}},{"base_weights":[-0E0,-5.879825E-3,4.904008E-3,-3.913066E-4,-0E0,3.3425915E-6,3.62974E-4],"categories":[],"categories_nodes":[],"categories_segments":[],"categories_sizes":[],"default_left":[0,0,0,0,0,0,0],"id":51,"left_children":[1,3,5,-1,-1,-1,-1],"loss_changes":[4.4963658E-2,1.6312106E-2,1.2854258E-2,0E0,0E0,0E0,0E0],"parents":[2147483647,0,0,1,1,2,2],"right_children":[2,4,6,-1,-1,-1,-1],"split_conditions":[-2E-3,-1.06E0,6.606E1,-3.913066E-4,-0E0,3.3425915E-6,3.62974E-4],"split_indices":[20,37,2,0,0,0,0],"split_type":[0,0,0,0,0,0,0],"sum_hessian":[1.536E3,7.22E2,8.14E2,3.01E2,4.21E2,5.4E2,2.74E2],"tree_param":{"num_deleted":"0","num_feature":"54","num_nodes":"7","size_leaf_vector":"1"}},{"base_weights":[-0E0,-5.718317E-3,4.7807116E-3,-3.7842465E-4,-0E0,3.2313917E-6,3.5105253E-4],"categories":[],"categories_nodes":[],"categories_segments":[],"categories_sizes":[],"default_left":[0,0,0,0,0,0,0],"id":52,"left_children":[1,3,5,-1,-1,-1,-1],"loss_changes":[4.261692E-2,1.4989166E-2,1.1728331E-2,0E0,0E0,0E0,0E0],"parents":[2147483647,0,0,1,1,2,2],"right_children":[2,4,6,-1,-1,-1,-1],"split_conditions":[-2E-3,-1.06E0,6.606E1,-3.7842465E-4,-0E0,3.2313917E-6,3.5105253E-4],"split_indices":[20,37,2,0,0,0,0],"split_type":[0,0,0,0,0,0,0],"sum_hessian":[1.536E3,7.22E2,8.14E2,3.01E2,4.21E2,5.4E2,2.74E2],"tree_param":{"num_deleted":"0","num_feature":"54","num_nodes":"7","size_leaf_vector":"1"}},{"base_weights":[-0E0,-5.6814295E-3,5.041594E-3,-9.344082E-4,-9.410238E-5,6.0350078E-5,6.3017965E-4],"categories":[],"categories_nodes":[],"categories_segments":[],"categories_sizes":[],"default_left":[0,0,0,0,0,0,0],"id":53,"left_children":[1,3,5,-1,-1,-1,-1],"loss_changes":[4.4558816E-2,1.8384812E-2,1.5917199E-2,0E0,0E0,0E0,0E0],"parents":[2147483647,0,0,1,1,2,2],"right_children":[2,4,6,-1,-1,-1,-1],"split_conditions":[-2E-3,-1.02E-1,3.68E-1,-9.344082E-4,-9.410238E-5,6.0350078E-5,6.3017965E-4],"split_indices":[3,3,34,0,0,0,0],"split_type":[0,0,0,0,0,0,0],"sum_hessian":[1.536E3,7.43E2,7.93E2,4.1E1,7.02E2,7.03E2,9E1],"tree_param":{"num_deleted":"0","num_feature":"54","num_nodes":"7","size_leaf_vector":"1"}},{"base_weights":[-0E0,-1.8747979E-3,1.15280375E-2,-8.4836636E-4,-1.14889435E-5,-0E0,5.595536E-4],"categories":[],"categories_nodes":[],"categories_segments":[],"categories_sizes":[],"default_left":[0,0,0,0,0,0,0],"id":54,"left_children":[1,3,5,-1,-1,-1,-1],"loss_changes":[3.1361323E-2,2.4070319E-2,1.1469938E-2,0E0,0E0,0E0,0E0],"parents":[2147483647,0,0,1,1,2,2],"right_children":[2,4,6,-1,-1,-1,-1],"split_conditions":[3.72E0,-2.7E-1,3.8E-2,-8.4836636E-4,-1.14889435E-5,-0E0,5.595536E-4],"split_indices":[38,5,21,0,0,0,0],"split_type":[0,0,0,0,0,0,0],"sum_hessian":[1.536E3,1.343E3,1.93E2,3.8E1,1.305E3,6.2E1,1.31E2],"tree_param":{"num_deleted":"0","num_feature":"54","num_nodes":"7","size_leaf_vector":"1"}},{"base_weights":[-0E0,-1.0567305E-2,2.4324718E-3,-0E0,-5.129651E-4,1.5293188E-6,4.7302336E-4],"categories":[],"categories_nodes":[],"categories_segments":[],"categories_sizes":[],"default_left":[0,0,0,0,0,0,0],"id":55,"left_children":[1,3,5,-1,-1,-1,-1],"loss_changes":[4.1880284E-2,1.1591807E-2,2.105566E-2,0E0,0E0,0E0,0E0],"parents":[2147483647,0,0,1,1,2,2],"right_children":[2,4,6,-1,-1,-1,-1],"split_conditions":[-3.2E-2,2.801E0,4.9E-2,-0E0,-5.129651E-4,1.5293188E-6,4.7302336E-4],"split_indices":[3,1,20,0,0,0,0],"split_type":[0,0,0,0,0,0,0],"sum_hessian":[1.536E3,3.02E2,1.234E3,1.1E2,1.92E2,1.097E3,1.37E2],"tree_param":{"num_deleted":"0","num_feature":"54","num_nodes":"7","size_leaf_vector":"1"}},{"base_weights":[-0E0,-3.4849166E-3,7.520851E-3,-8.794897E-4,-5.055391E-5,-0E0,3.1256524E-4],"categories":[],"categories_nodes":[],"categories_segments":[],"categories_sizes":[],"default_left":[0,0,0,0,0,0,0],"id":56,"left_children":[1,3,5,-1,-1,-1,-1],"loss_changes":[3.976404E-2,2.2074005E-2,1.0065172E-2,0E0,0E0,0E0,0E0],"parents":[2147483647,0,0,1,1,2,2],"right_children":[2,4,6,-1,-1,-1,-1],"split_conditions":[1.8E-2,-1.02E-1,-1.78E-1,-8.794897E-4,-5.055391E-5,-0E0,3.1256524E-4],"split_indices":[3,3,27,0,0,0,0],"split_type":[0,0,0,0,0,0,0],"sum_hessian":[1.536E3,1.072E3,4.64E2,4.1E1,1.031E3,4.4E1,4.2E2],"tree_param":{"num_deleted":"0","num_feature":"54","num_nodes":"7","size_leaf_vector":"1"}},{"base_weights":[-0E0,-5.935294E-3,3.7825196E-3,-2.5147392E-4,-0E0,-0E0,2.181015E-4],"categories":[],"categories_nodes":[],"categories_segments":[],"categories_sizes":[],"default_left":[0,0,0,0,0,0,0],"id":57,"left_children":[1,3,5,-1,-1,-1,-1],"loss_changes":[3.53698E-2,1.0968737E-2,9.86003E-3,0E0,0E0,0E0,0E0],"parents":[2147483647,0,0,1,1,2,2],"right_children":[2,4,6,-1,-1,-1,-1],"split_conditions":[-5E-3,6.6E-2,1.871E0,-2.5147392E-4,-0E0,-0E0,2.181015E-4],"split_indices":[20,4,1,0,0,0,0],"split_type":[0,0,0,0,0,0,0],"sum_hessian":[1.536E3,6.23E2,9.13E2,5.89E2,3.4E1,3.7E2,5.43E2],"tree_param":{"num_deleted":"0","num_feature":"54","num_nodes":"7","size_leaf_vector":"1"}},{"base_weights":[-0E0,-9.90357E-3,2.2820816E-3,-5.175068E-4,-0E0,-0E0,3.9113412E-4],"categories":[],"categories_nodes":[],"categories_segments":[],"categories_sizes":[],"default_left":[0,0,0,0,0,0,0],"id":58,"left_children":[1,3,5,-1,-1,-1,-1],"loss_changes":[3.6798045E-2,8.839665E-3,1.8470045E-2,0E0,0E0,0E0,0E0],"parents":[2147483647,0,0,1,1,2,2],"right_children":[2,4,6,-1,-1,-1,-1],"split_conditions":[-3.2E-2,-3.45E0,2.9E-1,-5.175068E-4,-0E0,-0E0,3.9113412E-4],"split_indices":[3,43,36,0,0,0,0],"split_type":[0,0,0,0,0,0,0],"sum_hessian":[1.536E3,3.02E2,1.234E3,1.59E2,1.43E2,1.056E3,1.78E2],"tree_param":{"num_deleted":"0","num_feature":"54","num_nodes":"7","size_leaf_vector":"1"}},{"base_weights":[-0E0,-1.1640986E-2,1.325402E-3,-0E0,-5.3466036E-4,-0E0,4.1242767E-4],"categories":[],"categories_nodes":[],"categories_segments":[],"categories_sizes":[],"default_left":[0,0,0,0,0,0,0],"id":59,"left_children":[1,3,5,-1,-1,-1,-1],"loss_changes":[2.6167506E-2,5.9908796E-3,1.6927747E-2,0E0,0E0,0E0,0E0],"parents":[2147483647,0,0,1,1,2,2],"right_children":[2,4,6,-1,-1,-1,-1],"split_conditions":[-2.15E-1,2.6E0,1.35E-1,-0E0,-5.3466036E-4,-0E0,4.1242767E-4],"split_indices":[9,1,22,0,0,0,0],"split_type":[0,0,0,0,0,0,0],"sum_hessian":[1.536E3,1.68E2,1.368E3,5.7E1,1.11E2,1.246E3,1.22E2],"tree_param":{"num_deleted":"0","num_feature":"54","num_nodes":"7","size_leaf_vector":"1"}},{"base_weights":[-0E0,-1.7027109E-3,1.0438806E-2,-4.1076075E-4,-0E0,-0E0,5.081948E-4],"categories":[],"categories_nodes":[],"categories_segments":[],"categories_sizes":[],"default_left":[0,0,0,0,0,0,0],"id":60,"left_children":[1,3,5,-1,-1,-1,-1],"loss_changes":[2.5738131E-2,2.1210011E-2,9.591354E-3,0E0,0E0,0E0,0E0],"parents":[2147483647,0,0,1,1,2,2],"right_children":[2,4,6,-1,-1,-1,-1],"split_conditions":[3.72E0,-2.09E-1,3.8E-2,-4.1076075E-4,-0E0,-0E0,5.081948E-4],"split_indices":[38,9,21,0,0,0,0],"split_type":[0,0,0,0,0,0,0],"sum_hessian":[1.536E3,1.343E3,1.93E2,1.62E2,1.181E3,6.2E1,1.31E2],"tree_param":{"num_deleted":"0","num_feature":"54","num_nodes":"7","size_leaf_vector":"1"}},{"base_weights":[-0E0,-2.3935612E-2,5.48802E-4,-9.6336956E-4,-0E0,-7.843755E-6,3.6280285E-4],"categories":[],"categories_nodes":[],"categories_segments":[],"categories_sizes":[],"default_left":[0,0,0,0,0,0,0],"id":61,"left_children":[1,3,5,-1,-1,-1,-1],"loss_changes":[2.5245162E-2,8.905031E-3,2.1996979E-2,0E0,0E0,0E0,0E0],"parents":[2147483647,0,0,1,1,2,2],"right_children":[2,4,6,-1,-1,-1,-1],"split_conditions":[-2.02E-1,9.2E-2,3.76E0,-9.6336956E-4,-0E0,-7.843755E-6,3.6280285E-4],"split_indices":[4,9,38,0,0,0,0],"split_type":[0,0,0,0,0,0,0],"sum_hessian":[1.536E3,3.6E1,1.5E3,3.4E1,2E0,1.314E3,1.86E2],"tree_param":{"num_deleted":"0","num_feature":"54","num_nodes":"7","size_leaf_vector":"1"}},{"base_weights":[-0E0,-4.8877024E-3,4.29121E-3,-7.9945417E-4,-7.497926E-5,2.1053806E-5,4.94717E-4],"categories":[],"categories_nodes":[],"categories_segments":[],"categories_sizes":[],"default_left":[0,0,0,0,0,0,0],"id":62,"left_children":[1,3,5,-1,-1,-1,-1],"loss_changes":[3.266032E-2,1.2724835E-2,1.5939672E-2,0E0,0E0,0E0,0E0],"parents":[2147483647,0,0,1,1,2,2],"right_children":[2,4,6,-1,-1,-1,-1],"split_conditions":[-2E-3,-1.02E-1,2.98E-1,-7.9945417E-4,-7.497926E-5,2.1053806E-5,4.94717E-4],"split_indices":[3,3,36,0,0,0,0],"split_type":[0,0,0,0,0,0,0],"sum_hessian":[1.536E3,7.43E2,7.93E2,4.1E1,7.02E2,6.59E2,1.34E2],"tree_param":{"num_deleted":"0","num_feature":"54","num_nodes":"7","size_leaf_vector":"1"}},{"base_weights":[-0E0,-4.7738594E-3,4.1910354E-3,-7.765607E-4,-7.247721E-5,2.4543344E-5,4.6222538E-4],"categories":[],"categories_nodes":[],"categories_segments":[],"categories_sizes":[],"default_left":[0,0,0,0,0,0,0],"id":63,"left_children":[1,3,5,-1,-1,-1,-1],"loss_changes":[3.1155106E-2,1.1787683E-2,1.2661368E-2,0E0,0E0,0E0,0E0],"parents":[2147483647,0,0,1,1,2,2],"right_children":[2,4,6,-1,-1,-1,-1],"split_conditions":[-2E-3,-1.02E-1,4.9E-2,-7.765607E-4,-7.247721E-5,2.4543344E-5,4.6222538E-4],"split_indices":[3,3,20,0,0,0,0],"split_type":[0,0,0,0,0,0,0],"sum_hessian":[1.536E3,7.43E2,7.93E2,4.1E1,7.02E2,6.6E2,1.33E2],"tree_param":{"num_deleted":"0","num_feature":"54","num_nodes":"7","size_leaf_vector":"1"}},{"base_weights":[-0E0,-8.112666E-3,1.6840828E-3,-3.2591E-4,-0E0,-0E0,4.7007191E-4],"categories":[],"categories_nodes":[],"categories_segments":[],"categories_sizes":[],"default_left":[0,0,0,0,0,0,0],"id":64,"left_children":[1,3,5,-1,-1,-1,-1],"loss_changes":[2.2615686E-2,5.655093E-3,1.9219035E-2,0E0,0E0,0E0,0E0],"parents":[2147483647,0,0,1,1,2,2],"right_children":[2,4,6,-1,-1,-1,-1],"split_conditions":[-1.57E0,6.8E-2,1.3E-1,-3.2591E-4,-0E0,-0E0,4.7007191E-4],"split_indices":[37,4,22,0,0,0,0],"split_type":[0,0,0,0,0,0,0],"sum_hessian":[1.536E3,2.82E2,1.254E3,2.57E2,2.5E1,1.144E3,1.1E2],"tree_param":{"num_deleted":"0","num_feature":"54","num_nodes":"7","size_leaf_vector":"1"}},{"base_weights":[-0E0,-8.18172E-3,2.1942474E-3,-0E0,-4.1917662E-4,-0E0,4.0831236E-4],"categories":[],"categories_nodes":[],"categories_segments":[],"categories_sizes":[],"default_left":[0,0,0,0,0,0,0],"id":65,"left_children":[1,3,5,-1,-1,-1,-1],"loss_changes":[2.8977877E-2,1.08683985E-2,1.5067967E-2,0E0,0E0,0E0,0E0],"parents":[2147483647,0,0,1,1,2,2],"right_children":[2,4,6,-1,-1,-1,-1],"split_conditions":[-2.7E-2,2.801E0,4.9E-2,-0E0,-4.1917662E-4,-0E0,4.0831236E-4],"split_indices":[3,1,20,0,0,0,0],"split_type":[0,0,0,0,0,0,0],"sum_hessian":[1.536E3,3.39E2,1.197E3,1.26E2,2.13E2,1.062E3,1.35E2],"tree_param":{"num_deleted":"0","num_feature":"54","num_nodes":"7","size_leaf_vector":"1"}},{"base_weights":[-0E0,-6.5829377E-3,2.4532215E-3,-2.8372035E-4,-0E0,-0E0,2.1059976E-4],"categories":[],"categories_nodes":[],"categories_segments":[],"categories_sizes":[],"default_left":[0,0,0,0,0,0,0],"id":66,"left_children":[1,3,5,-1,-1,-1,-1],"loss_changes":[2.5686536E-2,9.706406E-3,9.586734E-3,0E0,0E0,0E0,0E0],"parents":[2147483647,0,0,1,1,2,2],"right_children":[2,4,6,-1,-1,-1,-1],"split_conditions":[-1.3E-2,5.71E0,3.8E0,-2.8372035E-4,-0E0,-0E0,2.1059976E-4],"split_indices":[20,44,45,0,0,0,0],"split_type":[0,0,0,0,0,0,0],"sum_hessian":[1.536E3,4.31E2,1.105E3,3.98E2,3.3E1,6.95E2,4.1E2],"tree_param":{"num_deleted":"0","num_feature":"54","num_nodes":"7","size_leaf_vector":"1"}},{"base_weights":[-0E0,-2.8287922E-3,6.202664E-3,-4.2420832E-4,-0E0,-0E0,2.6333836E-4],"categories":[],"categories_nodes":[],"categories_segments":[],"categories_sizes":[],"default_left":[0,0,0,0,0,0,0],"id":67,"left_children":[1,3,5,-1,-1,-1,-1],"loss_changes":[2.676768E-2,1.9585108E-2,7.934537E-3,0E0,0E0,0E0,0E0],"parents":[2147483647,0,0,1,1,2,2],"right_children":[2,4,6,-1,-1,-1,-1],"split_conditions":[1.8E-2,-3.6E-2,-1.78E-1,-4.2420832E-4,-0E0,-0E0,2.6333836E-4],"split_indices":[3,20,27,0,0,0,0],"split_type":[0,0,0,0,0,0,0],"sum_hessian":[1.536E3,1.072E3,4.64E2,1.71E2,9.01E2,4.4E1,4.2E2],"tree_param":{"num_deleted":"0","num_feature":"54","num_nodes":"7","size_leaf_vector":"1"}},{"base_weights":[-0E0,-4.264802E-3,3.7884691E-3,-7.2131713E-4,-5.808171E-5,9.932078E-6,4.5115096E-4],"categories":[],"categories_nodes":[],"categories_segments":[],"categories_sizes":[],"default_left":[0,0,0,0,0,0,0],"id":68,"left_children":[1,3,5,-1,-1,-1,-1],"loss_changes":[2.5132257E-2,1.055321E-2,1.3867151E-2,0E0,0E0,0E0,0E0],"parents":[2147483647,0,0,1,1,2,2],"right_children":[2,4,6,-1,-1,-1,-1],"split_conditions":[-2E-3,-1.02E-1,2.98E-1,-7.2131713E-4,-5.808171E-5,9.932078E-6,4.5115096E-4],"split_indices":[3,3,36,0,0,0,0],"split_type":[0,0,0,0,0,0,0],"sum_hessian":[1.536E3,7.43E2,7.93E2,4.1E1,7.02E2,6.59E2,1.34E2],"tree_param":{"num_deleted":"0","num_feature":"54","num_nodes":"7","size_leaf_vector":"1"}},{"base_weights":[-0E0,-2.7129184E-3,5.8636386E-3,-4.0427828E-4,-0E0,3.9496326E-6,4.4974385E-4],"categories":[],"categories_nodes":[],"categories_segments":[],"categories_sizes":[],"default_left":[0,0,0,0,0,0,0],"id":69,"left_children":[1,3,5,-1,-1,-1,-1],"loss_changes":[2.4146764E-2,1.768865E-2,7.515529E-3,0E0,0E0,0E0,0E0],"parents":[2147483647,0,0,1,1,2,2],"right_children":[2,4,6,-1,-1,-1,-1],"split_conditions":[1.8E-2,-3.6E-2,3.136E0,-4.0427828E-4,-0E0,3.9496326E-6,4.4974385E-4],"split_indices":[3,20,0,0,0,0,0],"split_type":[0,0,0,0,0,0,0],"sum_hessian":[1.536E3,1.072E3,4.64E2,1.71E2,9.01E2,3.38E2,1.26E2],"tree_param":{"num_deleted":"0","num_feature":"54","num_nodes":"7","size_leaf_vector":"1"}},{"base_weights":[-0E0,-4.084825E-3,3.6378268E-3,-6.9021364E-4,-5.377977E-5,2.5647323E-5,4.756882E-4],"categories":[],"categories_nodes":[],"categories_segments":[],"categories_sizes":[],"default_left":[0,0,0,0,0,0,0],"id":70,"left_children":[1,3,5,-1,-1,-1,-1],"loss_changes":[2.3109514E-2,9.516037E-3,9.977259E-3,0E0,0E0,0E0,0E0],"parents":[2147483647,0,0,1,1,2,2],"right_children":[2,4,6,-1,-1,-1,-1],"split_conditions":[-2E-3,-1.02E-1,2.01E-1,-6.9021364E-4,-5.377977E-5,2.5647323E-5,4.756882E-4],"split_indices":[3,3,24,0,0,0,0],"split_type":[0,0,0,0,0,0,0],"sum_hessian":[1.536E3,7.43E2,7.93E2,4.1E1,7.02E2,6.99E2,9.4E1],"tree_param":{"num_deleted":"0","num_feature":"54","num_nodes":"7","size_leaf_vector":"1"}},{"base_weights":[-0E0,-2.60132E-3,5.638914E-3,-6.704484E-4,-2.9305433E-5,-0E0,2.431091E-4],"categories":[],"categories_nodes":[],"categories_segments":[],"categories_sizes":[],"default_left":[0,0,0,0,0,0,0],"id":71,"left_children":[1,3,5,-1,-1,-1,-1],"loss_changes":[2.2288498E-2,1.2569359E-2,7.229748E-3,0E0,0E0,0E0,0E0],"parents":[2147483647,0,0,1,1,2,2],"right_children":[2,4,6,-1,-1,-1,-1],"split_conditions":[1.8E-2,-1.02E-1,-1.78E-1,-6.704484E-4,-2.9305433E-5,-0E0,2.431091E-4],"split_indices":[3,3,27,0,0,0,0],"split_type":[0,0,0,0,0,0,0],"sum_hessian":[1.536E3,1.072E3,4.64E2,4.1E1,1.031E3,4.4E1,4.2E2],"tree_param":{"num_deleted":"0","num_feature":"54","num_nodes":"7","size_leaf_vector":"1"}},{"base_weights":[-0E0,-7.5664963E-3,1.7285767E-3,-0E0,-3.9443804E-4,-0E0,3.089333E-4],"categories":[],"categories_nodes":[],"categories_segments":[],"categories_sizes":[],"default_left":[0,0,0,0,0,0,0],"id":72,"left_children":[1,3,5,-1,-1,-1,-1],"loss_changes":[2.14153E-2,9.567205E-3,1.1846392E-2,0E0,0E0,0E0,0E0],"parents":[2147483647,0,0,1,1,2,2],"right_children":[2,4,6,-1,-1,-1,-1],"split_conditions":[-3.2E-2,2.801E0,2.9E-1,-0E0,-3.9443804E-4,-0E0,3.089333E-4],"split_indices":[3,1,36,0,0,0,0],"split_type":[0,0,0,0,0,0,0],"sum_hessian":[1.536E3,3.02E2,1.234E3,1.1E2,1.92E2,1.056E3,1.78E2],"tree_param":{"num_deleted":"0","num_feature":"54","num_nodes":"7","size_leaf_vector":"1"}},{"base_weights":[-0E0,-3.8486721E-3,3.3911227E-3,-2.7214867E-4,-0E0,1.9785053E-5,4.6856882E-4],"categories":[],"categories_nodes":[],"categories_segments":[],"categories_sizes":[],"default_left":[0,0,0,0,0,0,0],"id":73,"left_children":[1,3,5,-1,-1,-1,-1],"loss_changes":[2.0316139E-2,8.190512E-3,9.829396E-3,0E0,0E0,0E0,0E0],"parents":[2147483647,0,0,1,1,2,2],"right_children":[2,4,6,-1,-1,-1,-1],"split_conditions":[-2E-3,-1.9E-2,3.68E-1,-2.7214867E-4,-0E0,1.9785053E-5,4.6856882E-4],"split_indices":[3,20,34,0,0,0,0],"split_type":[0,0,0,0,0,0,0],"sum_hessian":[1.536E3,7.43E2,7.93E2,2.89E2,4.54E2,7.03E2,9E1],"tree_param":{"num_deleted":"0","num_feature":"54","num_nodes":"7","size_leaf_vector":"1"}},{"base_weights":[-0E0,-2.4407576E-3,5.2688923E-3,-3.650198E-4,-0E0,-0E0,4.1368985E-4],"categories":[],"categories_nodes":[],"categories_segments":[],"categories_sizes":[],"default_left":[0,0,0,0,0,0,0],"id":74,"left_children":[1,3,5,-1,-1,-1,-1],"loss_changes":[1.9512638E-2,1.4466053E-2,6.9813738E-3,0E0,0E0,0E0,0E0],"parents":[2147483647,0,0,1,1,2,2],"right_children":[2,4,6,-1,-1,-1,-1],"split_conditions":[1.8E-2,-3.6E-2,3.136E0,-3.650198E-4,-0E0,-0E0,4.1368985E-4],"split_indices":[3,20,0,0,0,0,0],"split_type":[0,0,0,0,0,0,0],"sum_hessian":[1.536E3,1.072E3,4.64E2,1.71E2,9.01E2,3.38E2,1.26E2],"tree_param":{"num_deleted":"0","num_feature":"54","num_nodes":"7","size_leaf_vector":"1"}},{"base_weights":[-0E0,-3.6987886E-3,3.1129236E-3,-2.640209E-4,-0E0,-0E0,2.4424656E-4],"categories":[],"categories_nodes":[],"categories_segments":[],"categories_sizes":[],"default_left":[0,0,0,0,0,0,0],"id":75,"left_children":[1,3,5,-1,-1,-1,-1],"loss_changes":[1.7935567E-2,8.926611E-3,6.8028467E-3,0E0,0E0,0E0,0E0],"parents":[2147483647,0,0,1,1,2,2],"right_children":[2,4,6,-1,-1,-1,-1],"split_conditions":[-2E-3,-1.06E0,6.606E1,-2.640209E-4,-0E0,-0E0,2.4424656E-4],"split_indices":[20,37,2,0,0,0,0],"split_type":[0,0,0,0,0,0,0],"sum_hessian":[1.536E3,7.22E2,8.14E2,3.01E2,4.21E2,5.4E2,2.74E2],"tree_param":{"num_deleted":"0","num_feature":"54","num_nodes":"7","size_leaf_vector":"1"}},{"base_weights":[-0E0,-3.5898166E-3,3.031436E-3,-2.5532927E-4,-0E0,-0E0,2.3622456E-4],"categories":[],"categories_nodes":[],"categories_segments":[],"categories_sizes":[],"default_left":[0,0,0,0,0,0,0],"id":76,"left_children":[1,3,5,-1,-1,-1,-1],"loss_changes":[1.6945137E-2,8.28169E-3,6.2603415E-3,0E0,0E0,0E0,0E0],"parents":[2147483647,0,0,1,1,2,2],"right_children":[2,4,6,-1,-1,-1,-1],"split_conditions":[-2E-3,-1.06E0,6.606E1,-2.5532927E-4,-0E0,-0E0,2.3622456E-4],"split_indices":[20,37,2,0,0,0,0],"split_type":[0,0,0,0,0,0,0],"sum_hessian":[1.536E3,7.22E2,8.14E2,3.01E2,4.21E2,5.4E2,2.74E2],"tree_param":{"num_deleted":"0","num_feature":"54","num_nodes":"7","size_leaf_vector":"1"}},{"base_weights":[-0E0,-1.8448364E-2,4.525457E-4,-8.26115E-4,-0E0,-0E0,2.1650047E-4],"categories":[],"categories_nodes":[],"categories_segments":[],"categories_sizes":[],"default_left":[0,0,0,0,0,0,0],"id":77,"left_children":[1,3,5,-1,-1,-1,-1],"loss_changes":[1.5036018E-2,9.450883E-3,8.980201E-3,0E0,0E0,0E0,0E0],"parents":[2147483647,0,0,1,1,2,2],"right_children":[2,4,6,-1,-1,-1,-1],"split_conditions":[-2.02E-1,3.29E0,5.15E0,-8.26115E-4,-0E0,-0E0,2.1650047E-4],"split_indices":[4,53,40,0,0,0,0],"split_type":[0,0,0,0,0,0,0],"sum_hessian":[1.536E3,3.6E1,1.5E3,3.3E1,3E0,1.282E3,2.18E2],"tree_param":{"num_deleted":"0","num_feature":"54","num_nodes":"7","size_leaf_vector":"1"}},{"base_weights":[-0E0,-3.4582214E-3,2.9050768E-3,-2.4519215E-4,-0E0,-0E0,1.5570589E-4],"categories":[],"categories_nodes":[],"categories_segments":[],"categories_sizes":[],"default_left":[0,0,0,0,0,0,0],"id":78,"left_children":[1,3,5,-1,-1,-1,-1],"loss_changes":[1.5652684E-2,7.5821048E-3,4.1652215E-3,0E0,0E0,0E0,0E0],"parents":[2147483647,0,0,1,1,2,2],"right_children":[2,4,6,-1,-1,-1,-1],"split_conditions":[-2E-3,-1.06E0,1.698E0,-2.4519215E-4,-0E0,-0E0,1.5570589E-4],"split_indices":[20,37,0,0,0,0,0],"split_type":[0,0,0,0,0,0,0],"sum_hessian":[1.536E3,7.22E2,8.14E2,3.01E2,4.21E2,3.01E2,5.13E2],"tree_param":{"num_deleted":"0","num_feature":"54","num_nodes":"7","size_leaf_vector":"1"}},{"base_weights":[-0E0,-2.2450439E-3,4.839694E-3,-5.955256E-4,-2.03024E-5,-0E0,2.4419854E-4],"categories":[],"categories_nodes":[],"categories_segments":[],"categories_sizes":[],"default_left":[0,0,0,0,0,0,0],"id":79,"left_children":[1,3,5,-1,-1,-1,-1],"loss_changes":[1.6478207E-2,9.997088E-3,7.284226E-3,0E0,0E0,0E0,0E0],"parents":[2147483647,0,0,1,1,2,2],"right_children":[2,4,6,-1,-1,-1,-1],"split_conditions":[1.8E-2,-1.02E-1,4.328E1,-5.955256E-4,-2.03024E-5,-0E0,2.4419854E-4],"split_indices":[3,3,2,0,0,0,0],"split_type":[0,0,0,0,0,0,0],"sum_hessian":[1.536E3,1.072E3,4.64E2,4.1E1,1.031E3,1.22E2,3.42E2],"tree_param":{"num_deleted":"0","num_feature":"54","num_nodes":"7","size_leaf_vector":"1"}},{"base_weights":[-0E0,-2.203026E-3,4.6624797E-3,-5.7847187E-4,-1.9622681E-5,-0E0,3.8196615E-4],"categories":[],"categories_nodes":[],"categories_segments":[],"categories_sizes":[],"default_left":[0,0,0,0,0,0,0],"id":80,"left_children":[1,3,5,-1,-1,-1,-1],"loss_changes":[1.5482908E-2,9.323815E-3,6.4752838E-3,0E0,0E0,0E0,0E0],"parents":[2147483647,0,0,1,1,2,2],"right_children":[2,4,6,-1,-1,-1,-1],"split_conditions":[1.8E-2,-1.02E-1,2.31E-1,-5.7847187E-4,-1.9622681E-5,-0E0,3.8196615E-4],"split_indices":[3,3,29,0,0,0,0],"split_type":[0,0,0,0,0,0,0],"sum_hessian":[1.536E3,1.072E3,4.64E2,4.1E1,1.031E3,3.41E2,1.23E2],"tree_param":{"num_deleted":"0","num_feature":"54","num_nodes":"7","size_leaf_vector":"1"}},{"base_weights":[-0E0,-2.5474683E-3,3.3537152E-3,-2.9528112E-4,-0E0,-0E0,3.5393407E-4],"categories":[],"categories_nodes":[],"categories_segments":[],"categories_sizes":[],"default_left":[0,0,0,0,0,0,0],"id":81,"left_children":[1,3,5,-1,-1,-1,-1],"loss_changes":[1.3099182E-2,6.756517E-3,8.609742E-3,0E0,0E0,0E0,0E0],"parents":[2147483647,0,0,1,1,2,2],"right_children":[2,4,6,-1,-1,-1,-1],"split_conditions":[2.21E0,-2.15E-1,3.72E0,-2.9528112E-4,-0E0,-0E0,3.5393407E-4],"split_indices":[46,9,38,0,0,0,0],"split_type":[0,0,0,0,0,0,0],"sum_hessian":[1.536E3,9.05E2,6.31E2,1.58E2,7.47E2,4.95E2,1.36E2],"tree_param":{"num_deleted":"0","num_feature":"54","num_nodes":"7","size_leaf_vector":"1"}},{"base_weights":[-0E0,-3.2332095E-3,2.6459044E-3,-1.6278507E-4,-0E0,-0E0,2.0926156E-4],"categories":[],"categories_nodes":[],"categories_segments":[],"categories_sizes":[],"default_left":[0,0,0,0,0,0,0],"id":82,"left_children":[1,3,5,-1,-1,-1,-1],"loss_changes":[1.3373122E-2,7.418618E-3,5.085807E-3,0E0,0E0,0E0,0E0],"parents":[2147483647,0,0,1,1,2,2],"right_children":[2,4,6,-1,-1,-1,-1],"split_conditions":[-2E-3,5.3E0,6.606E1,-1.6278507E-4,-0E0,-0E0,2.0926156E-4],"split_indices":[20,44,2,0,0,0,0],"split_type":[0,0,0,0,0,0,0],"sum_hessian":[1.536E3,7.22E2,8.14E2,6.38E2,8.4E1,5.4E2,2.74E2],"tree_param":{"num_deleted":"0","num_feature":"54","num_nodes":"7","size_leaf_vector":"1"}},{"base_weights":[-0E0,-3.1881393E-3,2.8160543E-3,-4.8047182E-4,-2.450301E-5,-0E0,3.5349987E-4],"categories":[],"categories_nodes":[],"categories_segments":[],"categories_sizes":[],"default_left":[0,0,0,0,0,0,0],"id":83,"left_children":[1,3,5,-1,-1,-1,-1],"loss_changes":[1.3972228E-2,6.197939E-3,9.513577E-3,0E0,0E0,0E0,0E0],"parents":[2147483647,0,0,1,1,2,2],"right_children":[2,4,6,-1,-1,-1,-1],"split_conditions":[-2E-3,-2.22E-1,2.9E-1,-4.8047182E-4,-2.450301E-5,-0E0,3.5349987E-4],"split_indices":[3,5,36,0,0,0,0],"split_type":[0,0,0,0,0,0,0],"sum_hessian":[1.536E3,7.43E2,7.93E2,5.9E1,6.84E2,6.56E2,1.37E2],"tree_param":{"num_deleted":"0","num_feature":"54","num_nodes":"7","size_leaf_vector":"1"}},{"base_weights":[-0E0,-1.9369296E-3,4.607304E-3,-3.0767312E-4,-0E0,-0E0,3.7259574E-4],"categories":[],"categories_nodes":[],"categories_segments":[],"categories_sizes":[],"default_left":[0,0,0,0,0,0,0],"id":84,"left_children":[1,3,5,-1,-1,-1,-1],"loss_changes":[1.3458746E-2,1.0669054E-2,6.139242E-3,0E0,0E0,0E0,0E0],"parents":[2147483647,0,0,1,1,2,2],"right_children":[2,4,6,-1,-1,-1,-1],"split_conditions":[2.1E-2,-3.6E-2,3.534E0,-3.0767312E-4,-0E0,-0E0,3.7259574E-4],"split_indices":[3,20,1,0,0,0,0],"split_type":[0,0,0,0,0,0,0],"sum_hessian":[1.536E3,1.106E3,4.3E2,1.71E2,9.35E2,3.11E2,1.19E2],"tree_param":{"num_deleted":"0","num_feature":"54","num_nodes":"7","size_leaf_vector":"1"}},{"base_weights":[-0E0,-3.0624045E-3,2.7043624E-3,-5.335656E-4,-2.7976866E-5,-0E0,3.0459912E-4],"categories":[],"categories_nodes":[],"categories_segments":[],"categories_sizes":[],"default_left":[0,0,0,0,0,0,0],"id":85,"left_children":[1,3,5,-1,-1,-1,-1],"loss_changes":[1.2889143E-2,5.5416427E-3,8.126354E-3,0E0,0E0,0E0,0E0],"parents":[2147483647,0,0,1,1,2,2],"right_children":[2,4,6,-1,-1,-1,-1],"split_conditions":[-2E-3,-1.02E-1,6.05E0,-5.335656E-4,-2.7976866E-5,-0E0,3.0459912E-4],"split_indices":[3,3,41,0,0,0,0],"split_type":[0,0,0,0,0,0,0],"sum_hessian":[1.536E3,7.43E2,7.93E2,4.1E1,7.02E2,6.29E2,1.64E2],"tree_param":{"num_deleted":"0","num_feature":"54","num_nodes":"7","size_leaf_vector":"1"}},{"base_weights":[-0E0,-9.347569E-3,6.9388514E-4,-3.545952E-4,-0E0,-3.858801E-6,1.2974696E-4],"categories":[],"categories_nodes":[],"categories_segments":[],"categories_sizes":[],"default_left":[0,0,0,0,0,0,0],"id":86,"left_children":[1,3,5,-1,-1,-1,-1],"loss_changes":[1.1284564E-2,2.485972E-3,7.176638E-3,0E0,0E0,0E0,0E0],"parents":[2147483647,0,0,1,1,2,2],"right_children":[2,4,6,-1,-1,-1,-1],"split_conditions":[-3.4E0,9.97E-1,3.16E0,-3.545952E-4,-0E0,-3.858801E-6,1.2974696E-4],"split_indices":[37,26,46,0,0,0,0],"split_type":[0,0,0,0,0,0,0],"sum_hessian":[1.536E3,1.14E2,1.422E3,1.11E2,3E0,8.99E2,5.23E2],"tree_param":{"num_deleted":"0","num_feature":"54","num_nodes":"7","size_leaf_vector":"1"}},{"base_weights":[-0E0,-1.8582612E-3,4.349403E-3,-4.458979E-4,-7.90301E-6,-0E0,3.292292E-4],"categories":[],"categories_nodes":[],"categories_segments":[],"categories_sizes":[],"default_left":[0,0,0,0,0,0,0],"id":87,"left_children":[1,3,5,-1,-1,-1,-1],"loss_changes":[1.2116291E-2,7.805166E-3,6.1522685E-3,0E0,0E0,0E0,0E0],"parents":[2147483647,0,0,1,1,2,2],"right_children":[2,4,6,-1,-1,-1,-1],"split_conditions":[2.1E-2,-2.22E-1,7.521E1,-4.458979E-4,-7.90301E-6,-0E0,3.292292E-4],"split_indices":[3,5,2,0,0,0,0],"split_type":[0,0,0,0,0,0,0],"sum_hessian":[1.536E3,1.106E3,4.3E2,5.9E1,1.047E3,2.86E2,1.44E2],"tree_param":{"num_deleted":"0","num_feature":"54","num_nodes":"7","size_leaf_vector":"1"}},{"base_weights":[-0E0,-2.8931214E-3,2.3502181E-3,-1.49327E-4,-0E0,1.041767E-4,-0E0],"categories":[],"categories_nodes":[],"categories_segments":[],"categories_sizes":[],"default_left":[0,0,0,0,0,0,0],"id":88,"left_children":[1,3,5,-1,-1,-1,-1],"loss_changes":[1.0640436E-2,6.5536737E-3,3.180483E-3,0E0,0E0,0E0,0E0],"parents":[2147483647,0,0,1,1,2,2],"right_children":[2,4,6,-1,-1,-1,-1],"split_conditions":[-2E-3,5.3E0,8.35E-1,-1.49327E-4,-0E0,1.041767E-4,-0E0],"split_indices":[20,44,18,0,0,0,0],"split_type":[0,0,0,0,0,0,0],"sum_hessian":[1.536E3,7.22E2,8.14E2,6.38E2,8.4E1,8.01E2,1.3E1],"tree_param":{"num_deleted":"0","num_feature":"54","num_nodes":"7","size_leaf_vector":"1"}},{"base_weights":[-0E0,-5.1120273E-3,1.3304912E-3,-2.9593133E-4,-0E0,-0E0,1.8033972E-4],"categories":[],"categories_nodes":[],"categories_segments":[],"categories_sizes":[],"default_left":[0,0,0,0,0,0,0],"id":89,"left_children":[1,3,5,-1,-1,-1,-1],"loss_changes":[1.1180879E-2,4.8392275E-3,8.690639E-3,0E0,0E0,0E0,0E0],"parents":[2147483647,0,0,1,1,2,2],"right_children":[2,4,6,-1,-1,-1,-1],"split_conditions":[-2.7E-2,-3.45E0,6.606E1,-2.9593133E-4,-0E0,-0E0,1.8033972E-4],"split_indices":[3,43,2,0,0,0,0],"split_type":[0,0,0,0,0,0,0],"sum_hessian":[1.536E3,3.39E2,1.197E3,1.73E2,1.66E2,8.26E2,3.71E2],"tree_param":{"num_deleted":"0","num_feature":"54","num_nodes":"7","size_leaf_vector":"1"}},{"base_weights":[-0E0,-8.71326E-3,6.108608E-4,-3.3267337E-4,-0E0,-0E0,2.5757268E-4],"categories":[],"categories_nodes":[],"categories_segments":[],"categories_sizes":[],"default_left":[0,0,0,0,0,0,0],"id":90,"left_children":[1,3,5,-1,-1,-1,-1],"loss_changes":[9.740425E-3,2.3077251E-3,6.719568E-3,0E0,0E0,0E0,0E0],"parents":[2147483647,0,0,1,1,2,2],"right_children":[2,4,6,-1,-1,-1,-1],"split_conditions":[-3.4E0,1.054E0,1.35E-1,-3.3267337E-4,-0E0,-0E0,2.5757268E-4],"split_indices":[37,27,22,0,0,0,0],"split_type":[0,0,0,0,0,0,0],"sum_hessian":[1.536E3,1.14E2,1.422E3,1.11E2,3E0,1.305E3,1.17E2],"tree_param":{"num_deleted":"0","num_feature":"54","num_nodes":"7","size_leaf_vector":"1"}},{"base_weights":[-0E0,-1.2658167E-2,3.6708754E-4,-6.324304E-4,-0E0,-1.6671216E-5,9.610335E-5],"categories":[],"categories_nodes":[],"categories_segments":[],"categories_sizes":[],"default_left":[0,0,0,0,0,0,0],"id":91,"left_children":[1,3,5,-1,-1,-1,-1],"loss_changes":[9.377892E-3,9.215557E-3,5.431877E-3,0E0,0E0,0E0,0E0],"parents":[2147483647,0,0,1,1,2,2],"right_children":[2,4,6,-1,-1,-1,-1],"split_conditions":[-8.2E-2,-7.2E-1,3.9E-1,-6.324304E-4,-0E0,-1.6671216E-5,9.610335E-5],"split_indices":[20,42,37,0,0,0,0],"split_type":[0,0,0,0,0,0,0],"sum_hessian":[1.536E3,5E1,1.486E3,4.5E1,5E0,8.25E2,6.61E2],"tree_param":{"num_deleted":"0","num_feature":"54","num_nodes":"7","size_leaf_vector":"1"}},{"base_weights":[-0E0,-1.7418236E-3,3.981533E-3,-2.655265E-4,-0E0,-0E0,4.8638872E-4],"categories":[],"categories_nodes":[],"categories_segments":[],"categories_sizes":[],"default_left":[0,0,0,0,0,0,0],"id":92,"left_children":[1,3,5,-1,-1,-1,-1],"loss_changes":[1.0309515E-2,7.6793954E-3,6.444159E-3,0E0,0E0,0E0,0E0],"parents":[2147483647,0,0,1,1,2,2],"right_children":[2,4,6,-1,-1,-1,-1],"split_conditions":[2.1E-2,-3.6E-2,1.289E1,-2.655265E-4,-0E0,-0E0,4.8638872E-4],"split_indices":[3,20,46,0,0,0,0],"split_type":[0,0,0,0,0,0,0],"sum_hessian":[1.536E3,1.106E3,4.3E2,1.71E2,9.35E2,3.73E2,5.7E1],"tree_param":{"num_deleted":"0","num_feature":"54","num_nodes":"7","size_leaf_vector":"1"}},{"base_weights":[-0E0,-1.7010384E-3,3.9181304E-3,-1.7162482E-4,-0E0,-0E0,3.016781E-4],"categories":[],"categories_nodes":[],"categories_segments":[],"categories_sizes":[],"default_left":[0,0,0,0,0,0,0],"id":93,"left_children":[1,3,5,-1,-1,-1,-1],"loss_changes":[9.9341795E-3,6.606359E-3,5.3982483E-3,0E0,0E0,0E0,0E0],"parents":[2147483647,0,0,1,1,2,2],"right_children":[2,4,6,-1,-1,-1,-1],"split_conditions":[2.1E-2,-8.9E-1,7.521E1,-1.7162482E-4,-0E0,-0E0,3.016781E-4],"split_indices":[3,37,2,0,0,0,0],"split_type":[0,0,0,0,0,0,0],"sum_hessian":[1.536E3,1.106E3,4.3E2,3.72E2,7.34E2,2.86E2,1.44E2],"tree_param":{"num_deleted":"0","num_feature":"54","num_nodes":"7","size_leaf_vector":"1"}},{"base_weights":[-0E0,-1.4030818E-2,2.966398E-4,-6.7264657E-4,-0E0,-0E0,2.2141318E-4],"categories":[],"categories_nodes":[],"categories_segments":[],"categories_sizes":[],"default_left":[0,0,0,0,0,0,0],"id":94,"left_children":[1,3,5,-1,-1,-1,-1],"loss_changes":[8.651353E-3,7.5106723E-3,8.202543E-3,0E0,0E0,0E0,0E0],"parents":[2147483647,0,0,1,1,2,2],"right_children":[2,4,6,-1,-1,-1,-1],"split_conditions":[-2.02E-1,3.29E0,3.76E0,-6.7264657E-4,-0E0,-0E0,2.2141318E-4],"split_indices":[4,53,38,0,0,0,0],"split_type":[0,0,0,0,0,0,0],"sum_hessian":[1.536E3,3.6E1,1.5E3,3.3E1,3E0,1.314E3,1.86E2],"tree_param":{"num_deleted":"0","num_feature":"54","num_nodes":"7","size_leaf_vector":"1"}},{"base_weights":[-0E0,-2.0583675E-3,2.6615278E-3,-5.246581E-4,-5.2332507E-6,1.3247102E-4,-0E0],"categories":[],"categories_nodes":[],"categories_segments":[],"categories_sizes":[],"default_left":[0,0,0,0,0,0,0],"id":95,"left_children":[1,3,5,-1,-1,-1,-1],"loss_changes":[8.386533E-3,8.571477E-3,4.7762967E-3,0E0,0E0,0E0,0E0],"parents":[2147483647,0,0,1,1,2,2],"right_children":[2,4,6,-1,-1,-1,-1],"split_conditions":[2.21E0,-8.2E-2,6.09E-1,-5.246581E-4,-5.2332507E-6,1.3247102E-4,-0E0],"split_indices":[46,20,12,0,0,0,0],"split_type":[0,0,0,0,0,0,0],"sum_hessian":[1.536E3,9.05E2,6.31E2,4.4E1,8.61E2,5.95E2,3.6E1],"tree_param":{"num_deleted":"0","num_feature":"54","num_nodes":"7","size_leaf_vector":"1"}},{"base_weights":[-0E0,-1.6495406E-3,3.6731036E-3,-2.2212495E-4,-0E0,-0E0,4.5868155E-4],"categories":[],"categories_nodes":[],"categories_segments":[],"categories_sizes":[],"default_left":[0,0,0,0,0,0,0],"id":96,"left_children":[1,3,5,-1,-1,-1,-1],"loss_changes":[8.928737E-3,6.444762E-3,5.9959893E-3,0E0,0E0,0E0,0E0],"parents":[2147483647,0,0,1,1,2,2],"right_children":[2,4,6,-1,-1,-1,-1],"split_conditions":[2.1E-2,-3E-2,1.289E1,-2.2212495E-4,-0E0,-0E0,4.5868155E-4],"split_indices":[3,20,46,0,0,0,0],"split_type":[0,0,0,0,0,0,0],"sum_hessian":[1.536E3,1.106E3,4.3E2,2.11E2,8.95E2,3.73E2,5.7E1],"tree_param":{"num_deleted":"0","num_feature":"54","num_nodes":"7","size_leaf_vector":"1"}},{"base_weights":[-0E0,-1.6074411E-3,3.613313E-3,-2.3803486E-4,-0E0,-0E0,4.449666E-4],"categories":[],"categories_nodes":[],"categories_segments":[],"categories_sizes":[],"default_left":[0,0,0,0,0,0,0],"id":97,"left_children":[1,3,5,-1,-1,-1,-1],"loss_changes":[8.585585E-3,6.009386E-3,5.4857554E-3,0E0,0E0,0E0,0E0],"parents":[2147483647,0,0,1,1,2,2],"right_children":[2,4,6,-1,-1,-1,-1],"split_conditions":[2.1E-2,-3.6E-2,1.289E1,-2.3803486E-4,-0E0,-0E0,4.449666E-4],"split_indices":[3,20,46,0,0,0,0],"split_type":[0,0,0,0,0,0,0],"sum_hessian":[1.536E3,1.106E3,4.3E2,1.71E2,9.35E2,3.73E2,5.7E1],"tree_param":{"num_deleted":"0","num_feature":"54","num_nodes":"7","size_leaf_vector":"1"}},{"base_weights":[-0E0,-1.5708788E-3,3.55531E-3,-2.0859805E-4,-0E0,-0E0,3.0242343E-4],"categories":[],"categories_nodes":[],"categories_segments":[],"categories_sizes":[],"default_left":[0,0,0,0,0,0,0],"id":98,"left_children":[1,3,5,-1,-1,-1,-1],"loss_changes":[8.274398E-3,5.6080315E-3,4.8737605E-3,0E0,0E0,0E0,0E0],"parents":[2147483647,0,0,1,1,2,2],"right_children":[2,4,6,-1,-1,-1,-1],"split_conditions":[2.1E-2,-3E-2,4.9E-2,-2.0859805E-4,-0E0,-0E0,3.0242343E-4],"split_indices":[3,20,20,0,0,0,0],"split_type":[0,0,0,0,0,0,0],"sum_hessian":[1.536E3,1.106E3,4.3E2,2.11E2,8.95E2,3.08E2,1.22E2],"tree_param":{"num_deleted":"0","num_feature":"54","num_nodes":"7","size_leaf_vector":"1"}},{"base_weights":[-0E0,-1.5313429E-3,3.4709333E-3,-1.5514108E-4,-0E0,-0E0,4.2721973E-4],"categories":[],"categories_nodes":[],"categories_segments":[],"categories_sizes":[],"default_left":[0,0,0,0,0,0,0],"id":99,"left_children":[1,3,5,-1,-1,-1,-1],"loss_changes":[7.878618E-3,5.4198722E-3,5.0516394E-3,0E0,0E0,0E0,0E0],"parents":[2147483647,0,0,1,1,2,2],"right_children":[2,4,6,-1,-1,-1,-1],"split_conditions":[2.1E-2,-8.9E-1,1.289E1,-1.5514108E-4,-0E0,-0E0,4.2721973E-4],"split_indices":[3,37,46,0,0,0,0],"split_type":[0,0,0,0,0,0,0],"sum_hessian":[1.536E3,1.106E3,4.3E2,3.72E2,7.34E2,3.73E2,5.7E1],"tree_param":{"num_deleted":"0","num_feature":"54","num_nodes":"7","size_leaf_vector":"1"}},{"base_weights":[-0E0,-9.024088E-4,5.508839E-3,-1.3146101E-4,-0E0,-0E0,3.0946982E-4],"categories":[],"categories_nodes":[],"categories_segments":[],"categories_sizes":[],"default_left":[0,0,0,0,0,0,0],"id":100,"left_children":[1,3,5,-1,-1,-1,-1],"loss_changes":[7.0001064E-3,5.3153806E-3,5.4169237E-3,0E0,0E0,0E0,0E0],"parents":[2147483647,0,0,1,1,2,2],"right_children":[2,4,6,-1,-1,-1,-1],"split_conditions":[3.76E0,-1.3E-2,3.8E-2,-1.3146101E-4,-0E0,-0E0,3.0946982E-4],"split_indices":[38,20,21,0,0,0,0],"split_type":[0,0,0,0,0,0,0],"sum_hessian":[1.536E3,1.349E3,1.87E2,4.15E2,9.34E2,6E1,1.27E2],"tree_param":{"num_deleted":"0","num_feature":"54","num_nodes":"7","size_leaf_vector":"1"}},{"base_weights":[-0E0,-1.2449883E-2,3.0789248E-4,-6.6023826E-4,-0E0,-0E0,1.7891284E-4],"categories":[],"categories_nodes":[],"categories_segments":[],"categories_sizes":[],"default_left":[0,0,0,0,0,0,0],"id":101,"left_children":[1,3,5,-1,-1,-1,-1],"loss_changes":[7.624575E-3,7.9612965E-3,5.3281514E-3,0E0,0E0,0E0,0E0],"parents":[2147483647,0,0,1,1,2,2],"right_children":[2,4,6,-1,-1,-1,-1],"split_conditions":[-1.02E-1,-1.54E-1,3.76E0,-6.6023826E-4,-0E0,-0E0,1.7891284E-4],"split_indices":[3,5,38,0,0,0,0],"split_type":[0,0,0,0,0,0,0],"sum_hessian":[1.536E3,4.1E1,1.495E3,3.3E1,8E0,1.308E3,1.87E2],"tree_param":{"num_deleted":"0","num_feature":"54","num_nodes":"7","size_leaf_vector":"1"}},{"base_weights":[-0E0,-1.2105284E-2,2.4793693E-4,-0E0,-6.202616E-4,-0E0,1.8764148E-4],"categories":[],"categories_nodes":[],"categories_segments":[],"categories_sizes":[],"default_left":[0,0,0,0,0,0,0],"id":102,"left_children":[1,3,5,-1,-1,-1,-1],"loss_changes":[6.433665E-3,5.258229E-3,5.89374E-3,0E0,0E0,0E0,0E0],"parents":[2147483647,0,0,1,1,2,2],"right_children":[2,4,6,-1,-1,-1,-1],"split_conditions":[-2.02E-1,2.738E0,3.76E0,-0E0,-6.202616E-4,-0E0,1.8764148E-4],"split_indices":[4,1,38,0,0,0,0],"split_type":[0,0,0,0,0,0,0],"sum_hessian":[1.536E3,3.6E1,1.5E3,9E0,2.7E1,1.314E3,1.86E2],"tree_param":{"num_deleted":"0","num_feature":"54","num_nodes":"7","size_leaf_vector":"1"}},{"base_weights":[-0E0,-1.8082645E-3,2.3208938E-3,-4.6292675E-4,-1.8856227E-8,-0E0,2.5095363E-4],"categories":[],"categories_nodes":[],"categories_segments":[],"categories_sizes":[],"default_left":[0,0,0,0,0,0,0],"id":103,"left_children":[1,3,5,-1,-1,-1,-1],"loss_changes":[6.42105E-3,6.6829817E-3,4.49948E-3,0E0,0E0,0E0,0E0],"parents":[2147483647,0,0,1,1,2,2],"right_children":[2,4,6,-1,-1,-1,-1],"split_conditions":[2.21E0,-8.2E-2,3.72E0,-4.6292675E-4,-1.8856227E-8,-0E0,2.5095363E-4],"split_indices":[46,20,38,0,0,0,0],"split_type":[0,0,0,0,0,0,0],"sum_hessian":[1.536E3,9.05E2,6.31E2,4.4E1,8.61E2,4.95E2,1.36E2],"tree_param":{"num_deleted":"0","num_feature":"54","num_nodes":"7","size_leaf_vector":"1"}},{"base_weights":[-0E0,-1.7859194E-3,2.2674217E-3,-4.9519056E-4,-2.429764E-6,1.55402E-4,-0E0],"categories":[],"categories_nodes":[],"categories_segments":[],"categories_sizes":[],"default_left":[0,0,0,0,0,0,0],"id":104,"left_children":[1,3,5,-1,-1,-1,-1],"loss_changes":[6.1911847E-3,6.213652E-3,4.478631E-3,0E0,0E0,0E0,0E0],"parents":[2147483647,0,0,1,1,2,2],"right_children":[2,4,6,-1,-1,-1,-1],"split_conditions":[2.21E0,-2.02E-1,2.24E-1,-4.9519056E-4,-2.429764E-6,1.55402E-4,-0E0],"split_indices":[46,4,17,0,0,0,0],"split_type":[0,0,0,0,0,0,0],"sum_hessian":[1.536E3,9.05E2,6.31E2,3.5E1,8.7E2,3.58E2,2.73E2],"tree_param":{"num_deleted":"0","num_feature":"54","num_nodes":"7","size_leaf_vector":"1"}},{"base_weights":[-0E0,-1.4241826E-3,3.1268895E-3,-1.1336034E-4,-0E0,-0E0,2.869733E-4],"categories":[],"categories_nodes":[],"categories_segments":[],"categories_sizes":[],"default_left":[0,0,0,0,0,0,0],"id":105,"left_children":[1,3,5,-1,-1,-1,-1],"loss_changes":[6.5334467E-3,4.561791E-3,4.800212E-3,0E0,0E0,0E0,0E0],"parents":[2147483647,0,0,1,1,2,2],"right_children":[2,4,6,-1,-1,-1,-1],"split_conditions":[2.1E-2,-1.1E-1,3.136E0,-1.1336034E-4,-0E0,-0E0,2.869733E-4],"split_indices":[3,37,0,0,0,0,0],"split_type":[0,0,0,0,0,0,0],"sum_hessian":[1.536E3,1.106E3,4.3E2,5.96E2,5.1E2,3.12E2,1.18E2],"tree_param":{"num_deleted":"0","num_feature":"54","num_nodes":"7","size_leaf_vector":"1"}},{"base_weights":[-0E0,-2.1745085E-3,1.8081E-3,-3.7404697E-4,-7.167099E-6,-0E0,2.2624932E-4],"categories":[],"categories_nodes":[],"categories_segments":[],"categories_sizes":[],"default_left":[0,0,0,0,0,0,0],"id":106,"left_children":[1,3,5,-1,-1,-1,-1],"loss_changes":[6.163922E-3,2.4257775E-3,5.0963117E-3,0E0,0E0,0E0,0E0],"parents":[2147483647,0,0,1,1,2,2],"right_children":[2,4,6,-1,-1,-1,-1],"split_conditions":[-2E-3,-1.02E-1,6.05E0,-3.7404697E-4,-7.167099E-6,-0E0,2.2624932E-4],"split_indices":[3,3,41,0,0,0,0],"split_type":[0,0,0,0,0,0,0],"sum_hessian":[1.536E3,7.43E2,7.93E2,4.1E1,7.02E2,6.29E2,1.64E2],"tree_param":{"num_deleted":"0","num_feature":"54","num_nodes":"7","size_leaf_vector":"1"}},{"base_weights":[-0E0,-6.668178E-3,4.2498953E-4,-0E0,-2.9498673E-4,-0E0,1.0109602E-4],"categories":[],"categories_nodes":[],"categories_segments":[],"categories_sizes":[],"default_left":[0,0,0,0,0,0,0],"id":107,"left_children":[1,3,5,-1,-1,-1,-1],"loss_changes":[5.6504663E-3,1.9007362E-3,4.077944E-3,0E0,0E0,0E0,0E0],"parents":[2147483647,0,0,1,1,2,2],"right_children":[2,4,6,-1,-1,-1,-1],"split_conditions":[-3.4E0,2.681E0,6.606E1,-0E0,-2.9498673E-4,-0E0,1.0109602E-4],"split_indices":[37,1,2,0,0,0,0],"split_type":[0,0,0,0,0,0,0],"sum_hessian":[1.536E3,1.14E2,1.422E3,2.6E1,8.8E1,9.47E2,4.75E2],"tree_param":{"num_deleted":"0","num_feature":"54","num_nodes":"7","size_leaf_vector":"1"}},{"base_weights":[-0E0,-2.1445758E-3,1.7315546E-3,-0E0,-1.3865306E-4,-0E0,2.6941468E-4],"categories":[],"categories_nodes":[],"categories_segments":[],"categories_sizes":[],"default_left":[0,0,0,0,0,0,0],"id":108,"left_children":[1,3,5,-1,-1,-1,-1],"loss_changes":[5.8500967E-3,2.1687627E-3,6.6212034E-3,0E0,0E0,0E0,0E0],"parents":[2147483647,0,0,1,1,2,2],"right_children":[2,4,6,-1,-1,-1,-1],"split_conditions":[-2E-3,2.801E0,2.98E-1,-0E0,-1.3865306E-4,-0E0,2.6941468E-4],"split_indices":[3,1,36,0,0,0,0],"split_type":[0,0,0,0,0,0,0],"sum_hessian":[1.536E3,7.43E2,7.93E2,4.18E2,3.25E2,6.59E2,1.34E2],"tree_param":{"num_deleted":"0","num_feature":"54","num_nodes":"7","size_leaf_vector":"1"}},{"base_weights":[-0E0,-6.3761827E-3,3.910477E-4,-2.5355304E-4,-0E0,-0E0,9.780958E-5],"categories":[],"categories_nodes":[],"categories_segments":[],"categories_sizes":[],"default_left":[0,0,0,0,0,0,0],"id":109,"left_children":[1,3,5,-1,-1,-1,-1],"loss_changes":[5.1489663E-3,1.7585554E-3,3.8401987E-3,0E0,0E0,0E0,0E0],"parents":[2147483647,0,0,1,1,2,2],"right_children":[2,4,6,-1,-1,-1,-1],"split_conditions":[-3.4E0,9.97E-1,6.606E1,-2.5355304E-4,-0E0,-0E0,9.780958E-5],"split_indices":[37,26,2,0,0,0,0],"split_type":[0,0,0,0,0,0,0],"sum_hessian":[1.536E3,1.14E2,1.422E3,1.11E2,3E0,9.47E2,4.75E2],"tree_param":{"num_deleted":"0","num_feature":"54","num_nodes":"7","size_leaf_vector":"1"}},{"base_weights":[-0E0,-1.67701E-3,2.032416E-3,-4.624312E-4,-1.8986185E-7,1.51649E-4,-0E0],"categories":[],"categories_nodes":[],"categories_segments":[],"categories_sizes":[],"default_left":[0,0,0,0,0,0,0],"id":110,"left_children":[1,3,5,-1,-1,-1,-1],"loss_changes":[5.20216E-3,5.3865826E-3,4.308222E-3,0E0,0E0,0E0,0E0],"parents":[2147483647,0,0,1,1,2,2],"right_children":[2,4,6,-1,-1,-1,-1],"split_conditions":[2.21E0,-2.02E-1,1.95E-1,-4.624312E-4,-1.8986185E-7,1.51649E-4,-0E0],"split_indices":[46,4,18,0,0,0,0],"split_type":[0,0,0,0,0,0,0],"sum_hessian":[1.536E3,9.05E2,6.31E2,3.5E1,8.7E2,3.36E2,2.95E2],"tree_param":{"num_deleted":"0","num_feature":"54","num_nodes":"7","size_leaf_vector":"1"}},{"base_weights":[-0E0,-1.3416442E-3,2.8045608E-3,-1.0209735E-4,-0E0,-0E0,3.7601226E-4],"categories":[],"categories_nodes":[],"categories_segments":[],"categories_sizes":[],"default_left":[0,0,0,0,0,0,0],"id":111,"left_children":[1,3,5,-1,-1,-1,-1],"loss_changes":[5.443291E-3,4.1332976E-3,4.5546303E-3,0E0,0E0,0E0,0E0],"parents":[2147483647,0,0,1,1,2,2],"right_children":[2,4,6,-1,-1,-1,-1],"split_conditions":[2.1E-2,-2E-3,1.289E1,-1.0209735E-4,-0E0,-0E0,3.7601226E-4],"split_indices":[3,20,46,0,0,0,0],"split_type":[0,0,0,0,0,0,0],"sum_hessian":[1.536E3,1.106E3,4.3E2,6.62E2,4.44E2,3.73E2,5.7E1],"tree_param":{"num_deleted":"0","num_feature":"54","num_nodes":"7","size_leaf_vector":"1"}},{"base_weights":[-0E0,-1.2809327E-3,2.755546E-3,-9.650905E-5,-0E0,-0E0,2.615521E-4],"categories":[],"categories_nodes":[],"categories_segments":[],"categories_sizes":[],"default_left":[0,0,0,0,0,0,0],"id":112,"left_children":[1,3,5,-1,-1,-1,-1],"loss_changes":[5.1468667E-3,3.6571007E-3,4.218702E-3,0E0,0E0,0E0,0E0],"parents":[2147483647,0,0,1,1,2,2],"right_children":[2,4,6,-1,-1,-1,-1],"split_conditions":[2.1E-2,1.2E0,3.136E0,-9.650905E-5,-0E0,-0E0,2.615521E-4],"split_indices":[3,45,0,0,0,0,0],"split_type":[0,0,0,0,0,0,0],"sum_hessian":[1.536E3,1.106E3,4.3E2,6.62E2,4.44E2,3.12E2,1.18E2],"tree_param":{"num_deleted":"0","num_feature":"54","num_nodes":"7","size_leaf_vector":"1"}},{"base_weights":[-0E0,-4.5851953E-3,6.061461E-4,-0E0,-2.4724702E-4,-0E0,1.4748637E-4],"categories":[],"categories_nodes":[],"categories_segments":[],"categories_sizes":[],"default_left":[0,0,0,0,0,0,0],"id":113,"left_children":[1,3,5,-1,-1,-1,-1],"loss_changes":[5.057795E-3,2.4915552E-3,6.63379E-3,0E0,0E0,0E0,0E0],"parents":[2147483647,0,0,1,1,2,2],"right_children":[2,4,6,-1,-1,-1,-1],"split_conditions":[-1.57E-1,2.6E0,2.3E-2,-0E0,-2.4724702E-4,-0E0,1.4748637E-4],"split_indices":[27,1,3,0,0,0,0],"split_type":[0,0,0,0,0,0,0],"sum_hessian":[1.536E3,2.1E2,1.326E3,8.6E1,1.24E2,9.61E2,3.65E2],"tree_param":{"num_deleted":"0","num_feature":"54","num_nodes":"7","size_leaf_vector":"1"}},{"base_weights":[-0E0,-5.8820383E-3,3.512808E-4,-0E0,-2.6565715E-4,-0E0,9.216188E-5],"categories":[],"categories_nodes":[],"categories_segments":[],"categories_sizes":[],"default_left":[0,0,0,0,0,0,0],"id":114,"left_children":[1,3,5,-1,-1,-1,-1],"loss_changes":[4.372189E-3,1.7190804E-3,3.4272028E-3,0E0,0E0,0E0,0E0],"parents":[2147483647,0,0,1,1,2,2],"right_children":[2,4,6,-1,-1,-1,-1],"split_conditions":[-3.4E0,2.681E0,6.606E1,-0E0,-2.6565715E-4,-0E0,9.216188E-5],"split_indices":[37,1,2,0,0,0,0],"split_type":[0,0,0,0,0,0,0],"sum_hessian":[1.536E3,1.14E2,1.422E3,2.6E1,8.8E1,9.47E2,4.75E2],"tree_param":{"num_deleted":"0","num_feature":"54","num_nodes":"7","size_leaf_vector":"1"}},{"base_weights":[-0E0,-9.882965E-3,1.6336663E-4,-0E0,-6.3908886E-4,-0E0,2.766487E-4],"categories":[],"categories_nodes":[],"categories_segments":[],"categories_sizes":[],"default_left":[0,0,0,0,0,0,0],"id":115,"left_children":[1,3,5,-1,-1,-1,-1],"loss_changes":[4.7549787E-3,9.395719E-3,3.950582E-3,0E0,0E0,0E0,0E0],"parents":[2147483647,0,0,1,1,2,2],"right_children":[2,4,6,-1,-1,-1,-1],"split_conditions":[-1.02E-1,2.738E0,4.45E-1,-0E0,-6.3908886E-4,-0E0,2.766487E-4],"split_indices":[3,1,27,0,0,0,0],"split_type":[0,0,0,0,0,0,0],"sum_hessian":[1.536E3,4.1E1,1.495E3,9E0,3.2E1,1.443E3,5.2E1],"tree_param":{"num_deleted":"0","num_feature":"54","num_nodes":"7","size_leaf_vector":"1"}},{"base_weights":[-0E0,-4.3758703E-3,5.4390176E-4,-0E0,-2.3556594E-4,-0E0,1.404726E-4],"categories":[],"categories_nodes":[],"categories_segments":[],"categories_sizes":[],"default_left":[0,0,0,0,0,0,0],"id":116,"left_children":[1,3,5,-1,-1,-1,-1],"loss_changes":[4.5547998E-3,2.2478201E-3,6.067807E-3,0E0,0E0,0E0,0E0],"parents":[2147483647,0,0,1,1,2,2],"right_children":[2,4,6,-1,-1,-1,-1],"split_conditions":[-1.57E-1,2.6E0,2.3E-2,-0E0,-2.3556594E-4,-0E0,1.404726E-4],"split_indices":[27,1,3,0,0,0,0],"split_type":[0,0,0,0,0,0,0],"sum_hessian":[1.536E3,2.1E2,1.326E3,8.6E1,1.24E2,9.61E2,3.65E2],"tree_param":{"num_deleted":"0","num_feature":"54","num_nodes":"7","size_leaf_vector":"1"}},{"base_weights":[-0E0,-9.351949E-3,1.3565482E-4,-0E0,-6.178914E-4,-0E0,2.6574897E-4],"categories":[],"categories_nodes":[],"categories_segments":[],"categories_sizes":[],"default_left":[0,0,0,0,0,0,0],"id":117,"left_children":[1,3,5,-1,-1,-1,-1],"loss_changes":[4.249477E-3,8.968246E-3,3.6547654E-3,0E0,0E0,0E0,0E0],"parents":[2147483647,0,0,1,1,2,2],"right_children":[2,4,6,-1,-1,-1,-1],"split_conditions":[-1.02E-1,2.738E0,4.45E-1,-0E0,-6.178914E-4,-0E0,2.6574897E-4],"split_indices":[3,1,27,0,0,0,0],"split_type":[0,0,0,0,0,0,0],"sum_hessian":[1.536E3,4.1E1,1.495E3,9E0,3.2E1,1.443E3,5.2E1],"tree_param":{"num_deleted":"0","num_feature":"54","num_nodes":"7","size_leaf_vector":"1"}},{"base_weights":[-0E0,-1.477672E-3,1.7333429E-3,-4.1014058E-4,-0E0,1.0255746E-4,-0E0],"categories":[],"categories_nodes":[],"categories_segments":[],"categories_sizes":[],"default_left":[0,0,0,0,0,0,0],"id":118,"left_children":[1,3,5,-1,-1,-1,-1],"loss_changes":[3.9096335E-3,4.263485E-3,3.6550271E-3,0E0,0E0,0E0,0E0],"parents":[2147483647,0,0,1,1,2,2],"right_children":[2,4,6,-1,-1,-1,-1],"split_conditions":[2.21E0,-2.02E-1,6.09E-1,-4.1014058E-4,-0E0,1.0255746E-4,-0E0],"split_indices":[46,4,12,0,0,0,0],"split_type":[0,0,0,0,0,0,0],"sum_hessian":[1.536E3,9.05E2,6.31E2,3.5E1,8.7E2,5.95E2,3.6E1],"tree_param":{"num_deleted":"0","num_feature":"54","num_nodes":"7","size_leaf_vector":"1"}},{"base_weights":[-0E0,-1.8452132E-3,1.3695976E-3,-9.9968885E-5,-0E0,-0E0,2.3667158E-4],"categories":[],"categories_nodes":[],"categories_segments":[],"categories_sizes":[],"default_left":[0,0,0,0,0,0,0],"id":119,"left_children":[1,3,5,-1,-1,-1,-1],"loss_changes":[4.055684E-3,1.3777046E-3,5.4601007E-3,0E0,0E0,0E0,0E0],"parents":[2147483647,0,0,1,1,2,2],"right_children":[2,4,6,-1,-1,-1,-1],"split_conditions":[-2E-3,2.6E-1,2.98E-1,-9.9968885E-5,-0E0,-0E0,2.3667158E-4],"split_indices":[3,45,36,0,0,0,0],"split_type":[0,0,0,0,0,0,0],"sum_hessian":[1.536E3,7.43E2,7.93E2,4.4E2,3.03E2,6.59E2,1.34E2],"tree_param":{"num_deleted":"0","num_feature":"54","num_nodes":"7","size_leaf_vector":"1"}},{"base_weights":[-0E0,-1.786586E-3,1.3299686E-3,-2.5895282E-4,-0E0,-0E0,2.8043942E-4],"categories":[],"categories_nodes":[],"categories_segments":[],"categories_sizes":[],"default_left":[0,0,0,0,0,0,0],"id":120,"left_children":[1,3,5,-1,-1,-1,-1],"loss_changes":[3.8103205E-3,1.5146199E-3,4.760825E-3,0E0,0E0,0E0,0E0],"parents":[2147483647,0,0,1,1,2,2],"right_children":[2,4,6,-1,-1,-1,-1],"split_conditions":[-2E-3,-2.22E-1,3.8E-1,-2.5895282E-4,-0E0,-0E0,2.8043942E-4],"split_indices":[3,5,33,0,0,0,0],"split_type":[0,0,0,0,0,0,0],"sum_hessian":[1.536E3,7.43E2,7.93E2,5.9E1,6.84E2,7.11E2,8.2E1],"tree_param":{"num_deleted":"0","num_feature":"54","num_nodes":"7","size_leaf_vector":"1"}},{"base_weights":[-0E0,-4.032317E-3,4.4424788E-4,-0E0,-2.1859015E-4,-0E0,1.2930948E-4],"categories":[],"categories_nodes":[],"categories_segments":[],"categories_sizes":[],"default_left":[0,0,0,0,0,0,0],"id":121,"left_children":[1,3,5,-1,-1,-1,-1],"loss_changes":[3.7958836E-3,1.9851255E-3,5.212824E-3,0E0,0E0,0E0,0E0],"parents":[2147483647,0,0,1,1,2,2],"right_children":[2,4,6,-1,-1,-1,-1],"split_conditions":[-1.57E-1,2.6E0,2.3E-2,-0E0,-2.1859015E-4,-0E0,1.2930948E-4],"split_indices":[27,1,3,0,0,0,0],"split_type":[0,0,0,0,0,0,0],"sum_hessian":[1.536E3,2.1E2,1.326E3,8.6E1,1.24E2,9.61E2,3.65E2],"tree_param":{"num_deleted":"0","num_feature":"54","num_nodes":"7","size_leaf_vector":"1"}},{"base_weights":[-0E0,-1.6889796E-3,1.129743E-3,-1.0128697E-4,-0E0,7.7100696E-5,-0E0],"categories":[],"categories_nodes":[],"categories_segments":[],"categories_sizes":[],"default_left":[0,0,0,0,0,0,0],"id":122,"left_children":[1,3,5,-1,-1,-1,-1],"loss_changes":[3.128565E-3,3.743199E-3,2.0699631E-3,0E0,0E0,0E0,0E0],"parents":[2147483647,0,0,1,1,2,2],"right_children":[2,4,6,-1,-1,-1,-1],"split_conditions":[-2E-3,5.3E0,2.17E-1,-1.0128697E-4,-0E0,7.7100696E-5,-0E0],"split_indices":[20,44,17,0,0,0,0],"split_type":[0,0,0,0,0,0,0],"sum_hessian":[1.536E3,7.22E2,8.14E2,6.38E2,8.4E1,5.89E2,2.25E2],"tree_param":{"num_deleted":"0","num_feature":"54","num_nodes":"7","size_leaf_vector":"1"}},{"base_weights":[-0E0,-3.8382714E-3,4.11963E-4,-0E0,-1.6711389E-4,-0E0,1.2386111E-4],"categories":[],"categories_nodes":[],"categories_segments":[],"categories_sizes":[],"default_left":[0,0,0,0,0,0,0],"id":123,"left_children":[1,3,5,-1,-1,-1,-1],"loss_changes":[3.4271989E-3,1.5718844E-3,4.797949E-3,0E0,0E0,0E0,0E0],"parents":[2147483647,0,0,1,1,2,2],"right_children":[2,4,6,-1,-1,-1,-1],"split_conditions":[-1.57E-1,-6.95E-1,2.3E-2,-0E0,-1.6711389E-4,-0E0,1.2386111E-4],"split_indices":[27,27,3,0,0,0,0],"split_type":[0,0,0,0,0,0,0],"sum_hessian":[1.536E3,2.1E2,1.326E3,2.3E1,1.87E2,9.61E2,3.65E2],"tree_param":{"num_deleted":"0","num_feature":"54","num_nodes":"7","size_leaf_vector":"1"}},{"base_weights":[-0E0,-5.1583746E-3,2.2873003E-4,-0E0,-2.3760747E-4,-0E0,8.394175E-5],"categories":[],"categories_nodes":[],"categories_segments":[],"categories_sizes":[],"default_left":[0,0,0,0,0,0,0],"id":124,"left_children":[1,3,5,-1,-1,-1,-1],"loss_changes":[3.3016854E-3,1.5048713E-3,2.914642E-3,0E0,0E0,0E0,0E0],"parents":[2147483647,0,0,1,1,2,2],"right_children":[2,4,6,-1,-1,-1,-1],"split_conditions":[-3.4E0,2.681E0,6.606E1,-0E0,-2.3760747E-4,-0E0,8.394175E-5],"split_indices":[37,1,2,0,0,0,0],"split_type":[0,0,0,0,0,0,0],"sum_hessian":[1.536E3,1.14E2,1.422E3,2.6E1,8.8E1,9.47E2,4.75E2],"tree_param":{"num_deleted":"0","num_feature":"54","num_nodes":"7","size_leaf_vector":"1"}},{"base_weights":[-0E0,-8.161971E-3,5.0845203E-5,-0E0,-5.7520653E-4,-0E0,2.3881387E-4],"categories":[],"categories_nodes":[],"categories_segments":[],"categories_sizes":[],"default_left":[0,0,0,0,0,0,0],"id":125,"left_children":[1,3,5,-1,-1,-1,-1],"loss_changes":[3.2196664E-3,8.214859E-3,2.9698915E-3,0E0,0E0,0E0,0E0],"parents":[2147483647,0,0,1,1,2,2],"right_children":[2,4,6,-1,-1,-1,-1],"split_conditions":[-1.02E-1,2.738E0,4.45E-1,-0E0,-5.7520653E-4,-0E0,2.3881387E-4],"split_indices":[3,1,27,0,0,0,0],"split_type":[0,0,0,0,0,0,0],"sum_hessian":[1.536E3,4.1E1,1.495E3,9E0,3.2E1,1.443E3,5.2E1],"tree_param":{"num_deleted":"0","num_feature":"54","num_nodes":"7","size_leaf_vector":"1"}},{"base_weights":[-0E0,-7.4193743E-4,3.5756275E-3,-1.1497261E-4,-0E0,2.1650571E-4,-0E0],"categories":[],"categories_nodes":[],"categories_segments":[],"categories_sizes":[],"default_left":[0,0,0,0,0,0,0],"id":126,"left_children":[1,3,5,-1,-1,-1,-1],"loss_changes":[3.23038E-3,2.7335256E-3,4.0014926E-3,0E0,0E0,0E0,0E0],"parents":[2147483647,0,0,1,1,2,2],"right_children":[2,4,6,-1,-1,-1,-1],"split_conditions":[3.76E0,-3.2E-2,9.17E0,-1.1497261E-4,-0E0,2.1650571E-4,-0E0],"split_indices":[38,3,39,0,0,0,0],"split_type":[0,0,0,0,0,0,0],"sum_hessian":[1.536E3,1.349E3,1.87E2,2.92E2,1.057E3,1.5E2,3.7E1],"tree_param":{"num_deleted":"0","num_feature":"54","num_nodes":"7","size_leaf_vector":"1"}},{"base_weights":[-0E0,-3.6107225E-3,3.5550218E-4,-0E0,-2.0008605E-4,-0E0,1.1609446E-4],"categories":[],"categories_nodes":[],"categories_segments":[],"categories_sizes":[],"default_left":[0,0,0,0,0,0,0],"id":127,"left_children":[1,3,5,-1,-1,-1,-1],"loss_changes":[3.0011472E-3,1.7905755E-3,4.245393E-3,0E0,0E0,0E0,0E0],"parents":[2147483647,0,0,1,1,2,2],"right_children":[2,4,6,-1,-1,-1,-1],"split_conditions":[-1.57E-1,2.6E0,2.3E-2,-0E0,-2.0008605E-4,-0E0,1.1609446E-4],"split_indices":[27,1,3,0,0,0,0],"split_type":[0,0,0,0,0,0,0],"sum_hessian":[1.536E3,2.1E2,1.326E3,8.6E1,1.24E2,9.61E2,3.65E2],"tree_param":{"num_deleted":"0","num_feature":"54","num_nodes":"7","size_leaf_vector":"1"}},{"base_weights":[-0E0,-7.2262745E-4,3.3560512E-3,-0E0,-8.932312E-5,2.0794709E-4,-0E0],"categories":[],"categories_nodes":[],"categories_segments":[],"categories_sizes":[],"default_left":[0,0,0,0,0,0,0],"id":128,"left_children":[1,3,5,-1,-1,-1,-1],"loss_changes":[2.896335E-3,3.1821227E-3,3.79458E-3,0E0,0E0,0E0,0E0],"parents":[2147483647,0,0,1,1,2,2],"right_children":[2,4,6,-1,-1,-1,-1],"split_conditions":[3.76E0,2.801E0,9.17E0,-0E0,-8.932312E-5,2.0794709E-4,-0E0],"split_indices":[38,1,39,0,0,0,0],"split_type":[0,0,0,0,0,0,0],"sum_hessian":[1.536E3,1.349E3,1.87E2,8.02E2,5.47E2,1.5E2,3.7E1],"tree_param":{"num_deleted":"0","num_feature":"54","num_nodes":"7","size_leaf_vector":"1"}},{"base_weights":[-0E0,-7.532609E-3,3.5406734E-5,-0E0,-4.5376958E-4,-0E0,1.835227E-4],"categories":[],"categories_nodes":[],"categories_segments":[],"categories_sizes":[],"default_left":[0,0,0,0,0,0,0],"id":129,"left_children":[1,3,5,-1,-1,-1,-1],"loss_changes":[2.7408544E-3,4.555838E-3,2.139473E-3,0E0,0E0,0E0,0E0],"parents":[2147483647,0,0,1,1,2,2],"right_children":[2,4,6,-1,-1,-1,-1],"split_conditions":[-1.02E-1,5.614E1,4.37E-1,-0E0,-4.5376958E-4,-0E0,1.835227E-4],"split_indices":[3,2,28,0,0,0,0],"split_type":[0,0,0,0,0,0,0],"sum_hessian":[1.536E3,4.1E1,1.495E3,8E0,3.3E1,1.43E3,6.5E1],"tree_param":{"num_deleted":"0","num_feature":"54","num_nodes":"7","size_leaf_vector":"1"}},{"base_weights":[-0E0,-4.6700304E-3,1.8118689E-4,-1.9443738E-4,-0E0,-0E0,8.039364E-5],"categories":[],"categories_nodes":[],"categories_segments":[],"categories_sizes":[],"default_left":[0,0,0,0,0,0,0],"id":130,"left_children":[1,3,5,-1,-1,-1,-1],"loss_changes":[2.6917676E-3,1.2886652E-3,2.6951204E-3,0E0,0E0,0E0,0E0],"parents":[2147483647,0,0,1,1,2,2],"right_children":[2,4,6,-1,-1,-1,-1],"split_conditions":[-3.4E0,9.97E-1,6.606E1,-1.9443738E-4,-0E0,-0E0,8.039364E-5],"split_indices":[37,26,2,0,0,0,0],"split_type":[0,0,0,0,0,0,0],"sum_hessian":[1.536E3,1.14E2,1.422E3,1.11E2,3E0,9.47E2,4.75E2],"tree_param":{"num_deleted":"0","num_feature":"54","num_nodes":"7","size_leaf_vector":"1"}},{"base_weights":[-0E0,-1.5273767E-3,1.0271061E-3,-0E0,-1.0501947E-4,-0E0,2.0600502E-4],"categories":[],"categories_nodes":[],"categories_segments":[],"categories_sizes":[],"default_left":[0,0,0,0,0,0,0],"id":131,"left_children":[1,3,5,-1,-1,-1,-1],"loss_changes":[2.5945392E-3,1.4735346E-3,4.4298824E-3,0E0,0E0,0E0,0E0],"parents":[2147483647,0,0,1,1,2,2],"right_children":[2,4,6,-1,-1,-1,-1],"split_conditions":[-2E-3,2.801E0,2.98E-1,-0E0,-1.0501947E-4,-0E0,2.0600502E-4],"split_indices":[3,1,36,0,0,0,0],"split_type":[0,0,0,0,0,0,0],"sum_hessian":[1.536E3,7.43E2,7.93E2,4.18E2,3.25E2,6.59E2,1.34E2],"tree_param":{"num_deleted":"0","num_feature":"54","num_nodes":"7","size_leaf_vector":"1"}},{"base_weights":[-0E0,-3.3876698E-3,3.1395623E-4,-0E0,-1.8766389E-4,-0E0,1.0801961E-4],"categories":[],"categories_nodes":[],"categories_segments":[],"categories_sizes":[],"default_left":[0,0,0,0,0,0,0],"id":132,"left_children":[1,3,5,-1,-1,-1,-1],"loss_changes":[2.6249005E-3,1.5735014E-3,3.68982E-3,0E0,0E0,0E0,0E0],"parents":[2147483647,0,0,1,1,2,2],"right_children":[2,4,6,-1,-1,-1,-1],"split_conditions":[-1.57E-1,2.6E0,2.3E-2,-0E0,-1.8766389E-4,-0E0,1.0801961E-4],"split_indices":[27,1,3,0,0,0,0],"split_type":[0,0,0,0,0,0,0],"sum_hessian":[1.536E3,2.1E2,1.326E3,8.6E1,1.24E2,9.61E2,3.65E2],"tree_param":{"num_deleted":"0","num_feature":"54","num_nodes":"7","size_leaf_vector":"1"}},{"base_weights":[-0E0,-6.7908526E-4,3.023648E-3,-1.01689395E-4,-0E0,-0E0,2.0703259E-4],"categories":[],"categories_nodes":[],"categories_segments":[],"categories_sizes":[],"default_left":[0,0,0,0,0,0,0],"id":133,"left_children":[1,3,5,-1,-1,-1,-1],"loss_changes":[2.4015768E-3,2.096972E-3,3.2868062E-3,0E0,0E0,0E0,0E0],"parents":[2147483647,0,0,1,1,2,2],"right_children":[2,4,6,-1,-1,-1,-1],"split_conditions":[3.76E0,-3.2E-2,3.8E-2,-1.01689395E-4,-0E0,-0E0,2.0703259E-4],"split_indices":[38,3,21,0,0,0,0],"split_type":[0,0,0,0,0,0,0],"sum_hessian":[1.536E3,1.349E3,1.87E2,2.92E2,1.057E3,6E1,1.27E2],"tree_param":{"num_deleted":"0","num_feature":"54","num_nodes":"7","size_leaf_vector":"1"}},{"base_weights":[-0E0,-3.2394307E-3,2.8023118E-4,-0E0,-1.7999136E-4,-0E0,7.6515076E-5],"categories":[],"categories_nodes":[],"categories_segments":[],"categories_sizes":[],"default_left":[0,0,0,0,0,0,0],"id":134,"left_children":[1,3,5,-1,-1,-1,-1],"loss_changes":[2.3847357E-3,1.4611951E-3,2.4718503E-3,0E0,0E0,0E0,0E0],"parents":[2147483647,0,0,1,1,2,2],"right_children":[2,4,6,-1,-1,-1,-1],"split_conditions":[-1.57E-1,2.6E0,6.347E1,-0E0,-1.7999136E-4,-0E0,7.6515076E-5],"split_indices":[27,1,2,0,0,0,0],"split_type":[0,0,0,0,0,0,0],"sum_hessian":[1.536E3,2.1E2,1.326E3,8.6E1,1.24E2,8.33E2,4.93E2],"tree_param":{"num_deleted":"0","num_feature":"54","num_nodes":"7","size_leaf_vector":"1"}},{"base_weights":[-0E0,-4.2829984E-3,1.2159468E-4,-0E0,-2.0365985E-4,-0E0,7.5444324E-5],"categories":[],"categories_nodes":[],"categories_segments":[],"categories_sizes":[],"default_left":[0,0,0,0,0,0,0],"id":135,"left_children":[1,3,5,-1,-1,-1,-1],"loss_changes":[2.2457575E-3,1.2516584E-3,2.393682E-3,0E0,0E0,0E0,0E0],"parents":[2147483647,0,0,1,1,2,2],"right_children":[2,4,6,-1,-1,-1,-1],"split_conditions":[-3.4E0,2.681E0,6.606E1,-0E0,-2.0365985E-4,-0E0,7.5444324E-5],"split_indices":[37,1,2,0,0,0,0],"split_type":[0,0,0,0,0,0,0],"sum_hessian":[1.536E3,1.14E2,1.422E3,2.6E1,8.8E1,9.47E2,4.75E2],"tree_param":{"num_deleted":"0","num_feature":"54","num_nodes":"7","size_leaf_vector":"1"}},{"base_weights":[-0E0,-6.7124254E-4,2.8149022E-3,-0E0,-8.490855E-5,1.8999823E-4,-0E0],"categories":[],"categories_nodes":[],"categories_segments":[],